%YAML:1.0
---
opencv_ml_svm:
   format: 3
   svmType: C_SVC
   kernel:
      type: RBF
      gamma: 0.50624999999999998
   C: 12.5
   term_criteria: { epsilon:1.1920928955078125e-07, iterations:1000 }
   var_count: 324
   class_count: 13
   class_labels: !!opencv-matrix
      rows: 13
      cols: 1
      dt: i
      data: [ 0, 1, 2, 3, 4, 5, 6, 7, 8, 9, 10, 11, 12 ]
   sv_total: 655
   support_vectors:
      - [ 0.515506446, 0.515506446, 0.110106662, 0.107070327,
          0.124008171, 0.515506446, 0.386773884, 0.0524376184,
          0.0793843716, 0.319398969, 0.480117947, 0.475775242,
          0.0977895185, 0.39781186, 0.480117947, 0.194705114,
          0.00608598208, 0.0060033272, 0.389375538, 0.389375538,
          0.389375538, 0.0163301155, 0.26423192, 0.38908729, 0.389375538,
          0.257588327, 0.319109589, 0.485881716, 0.485881716,
          0.142520621, 0.10897366, 0.128192887, 0.485881716, 0.485881716,
          0.0456448235, 0.010897967, 0.0589600168, 0.557512641,
          0.557512641, 0.0960253328, 0.101626009, 0.557512641,
          0.194675967, 0.031184271, 0.00869015697, 0.00150619773,
          0.554022729, 0.554022729, 0.00273571513, 0.00280299434,
          0.00499925949, 0.554022729, 0.271236271, 0.00565911829,
          0.348220199, 0.378905684, 0.148903832, 0.0826242045,
          0.308693618, 0.487640917, 0.487640917, 0.306054205,
          0.191716865, 0.219217867, 0.614720106, 0.614720106,
          0.188069493, 0.203983948, 0.011376489, 0.0355978645,
          0.0778186545, 0.324980438, 0.00418642489, 0.555166721,
          0.555166721, 0.0182498824, 0.00558036333, 0.00537891686,
          0.555166721, 0.263352543, 0.00778643135, 0.348220199,
          0.378905684, 0.148903832, 0.0826242045, 0.308693618,
          0.487640917, 0.487640917, 0.306054205, 0.191716865,
          0.219217867, 0.614720106, 0.614720106, 0.188069493,
          0.203983948, 0.011376489, 0.0355978645, 0.0778186545,
          0.324980438, 0.00418642489, 0.555166721, 0.555166721,
          0.0182498824, 0.00558036333, 0.00537891686, 0.555166721,
          0.263352543, 0.00778643135, 0.0570468046, 0.349749893,
          0.495218039, 0.198163971, 0.148692906, 0.224063039,
          0.495218039, 0.495218039, 0.148893043, 0.373605877,
          0.462311029, 0.462311029, 0.00920314621, 0.0242384449,
          0.0060913302, 0.0128685916, 0.462311029, 0.462311029,
          0.182639882, 0.460318536, 0.460318536, 0.0160106402,
          0.00801582169, 0.0199872144, 0.406481415, 0.400522292,
          0.460318536, 0.112230361, 0.305699438, 0.399749875,
          0.399749875, 0.296785444, 0.0536399595, 0.399749875,
          0.399749875, 0.399749875, 0.0474147238, 0.546047509,
          0.556863964, 0.556863964, 0.0726104528, 0.0174264535,
          0.0163714793, 0.110445395, 0.236190483, 0.39118126,
          0.321001917, 0.415788859, 0.415788859, 0.198160172,
          0.290728748, 0.195010602, 0.2435579, 0.415788859, 0.389375538,
          0.389375538, 0.389375538, 0.0163301155, 0.26423192, 0.38908729,
          0.389375538, 0.257588327, 0.319109589, 0.263923973,
          0.065075703, 0.0841561854, 0.129209206, 0.452035308,
          0.0703007951, 0.530679405, 0.530679405, 0.352863938,
          0.0188091677, 0.0184199661, 0.319245577, 0.518145502,
          0.518145502, 0.136400312, 0.142099649, 0.518145502, 0.2190727,
          0.00150619773, 0.554022729, 0.554022729, 0.00273571513,
          0.00280299434, 0.00499925949, 0.554022729, 0.271236271,
          0.00565911829, 0.00176725932, 0.0994479805, 0.202709898,
          0.00223201583, 0.0071412446, 0.0159359258, 0.686184704,
          0.686184704, 0.0125220465, 0.0851515979, 0.184646979,
          0.453578085, 0.351643324, 0.215001747, 0.461167634,
          0.461167634, 0.340857625, 0.192097574, 0.00418642489,
          0.555166721, 0.555166721, 0.0182498824, 0.00558036333,
          0.00537891686, 0.555166721, 0.263352543, 0.00778643135,
          0.295012385, 0.38541615, 0.158803403, 0.00696444511,
          0.0158708896, 0.00508621428, 0.599666476, 0.599666476,
          0.117003933, 0.46630463, 0.325121731, 0.146264613,
          0.0378660783, 0.0645109043, 0.135422796, 0.46630463,
          0.46630463, 0.438166589, 0.00418642489, 0.555166721,
          0.555166721, 0.0182498824, 0.00558036333, 0.00537891686,
          0.555166721, 0.263352543, 0.00778643135, 0.295012385,
          0.38541615, 0.158803403, 0.00696444511, 0.0158708896,
          0.00508621428, 0.599666476, 0.599666476, 0.117003933,
          0.46630463, 0.325121731, 0.146264613, 0.0378660783,
          0.0645109043, 0.135422796, 0.46630463, 0.46630463, 0.438166589,
          0.182639882, 0.460318536, 0.460318536, 0.0160106402,
          0.00801582169, 0.0199872144, 0.406481415, 0.400522292,
          0.460318536, 0.462605447, 0.462605447, 0.143699721,
          0.0143718645, 0.00421069283, 0.0782075822, 0.462605447,
          0.462605447, 0.335222095, 0.278808594, 0.454162836,
          0.112770282, 0.0140179815, 0.00837100018, 0.170809999,
          0.573936224, 0.573936224, 0.0964648575, 0.39118126,
          0.321001917, 0.415788859, 0.415788859, 0.198160172,
          0.290728748, 0.195010602, 0.2435579, 0.415788859, 0.146553516,
          0.128775179, 0.0818166286, 0.0176096689, 0.0463404357,
          0.670613229, 0.670613229, 0.137978643, 0.166163087,
          0.480193466, 0.480193466, 0.107286535, 0.051455237,
          0.0790739506, 0.480193466, 0.480193466, 0.218412623,
          0.0688909218 ]
      - [ 0.496392876, 0.407132745, 0.176641166, 0.0746287629,
          0.351240426, 0.31940645, 0.229559168, 0.147017449, 0.496392876,
          0.487198681, 0.308398038, 0.285448223, 0.0958761126,
          0.405148566, 0.487198681, 0.315350235, 0.102467366,
          0.246040374, 0.318131894, 0.241257295, 0.340627581,
          0.0384541936, 0.379286706, 0.379286706, 0.379286706,
          0.379286706, 0.379286706, 0.216721267, 0.321846753,
          0.181294337, 0.128789514, 0.54268086, 0.54268086, 0.21085909,
          0.134067386, 0.378327936, 0.147220269, 0.283985853,
          0.285518438, 0.0932096094, 0.556452632, 0.556452632,
          0.390789449, 0.0678786039, 0.159090519, 0.265650719,
          0.114376254, 0.174539611, 0.0783327594, 0.482553095,
          0.482553095, 0.357624739, 0.220136479, 0.482553095,
          0.434830874, 0.434830874, 0.215316176, 0.143213749,
          0.434830874, 0.317709953, 0.285832644, 0.271813571,
          0.324081957, 0.47549206, 0.164213657, 0.18458128, 0.127518117,
          0.391223013, 0.166323766, 0.47549206, 0.242809519, 0.47549206,
          0.535421073, 0.158812001, 0.0478771627, 0.121025816,
          0.48766458, 0.217077106, 0.199956879, 0.23284936, 0.535421073,
          0.434830874, 0.434830874, 0.215316176, 0.143213749,
          0.434830874, 0.317709953, 0.285832644, 0.271813571,
          0.324081957, 0.47549206, 0.164213657, 0.18458128, 0.127518117,
          0.391223013, 0.166323766, 0.47549206, 0.242809519, 0.47549206,
          0.535421073, 0.158812001, 0.0478771627, 0.121025816,
          0.48766458, 0.217077106, 0.199956879, 0.23284936, 0.535421073,
          0.197401226, 0.2037718, 0.177864969, 0.499854892, 0.612074077,
          0.340454996, 0.291437238, 0.131579489, 0.197773993, 0.48130551,
          0.286440045, 0.254291415, 0.277287185, 0.48130551, 0.313982129,
          0.42204079, 0.0692877993, 0.163641497, 0.165395319,
          0.0803296342, 0.159537792, 0.271616518, 0.473367453,
          0.473367453, 0.452574193, 0.36495164, 0.275806159, 0.35700345,
          0.12375778, 0.418042988, 0.43825227, 0.43825227, 0.346427828,
          0.312107533, 0.178803787, 0.211117491, 0.447824776,
          0.447824776, 0.134550139, 0.290260285, 0.447824776,
          0.447824776, 0.259448498, 0.0478693247, 0.146215454,
          0.435235709, 0.353460103, 0.0689624995, 0.188617095,
          0.435235709, 0.435235709, 0.435235709, 0.0356128365,
          0.267202944, 0.318131894, 0.241257295, 0.340627581,
          0.0384541936, 0.379286706, 0.379286706, 0.379286706,
          0.379286706, 0.379286706, 0.369063467, 0.303232789,
          0.369063467, 0.126440063, 0.369063467, 0.266699016,
          0.369063467, 0.369063467, 0.369063467, 0.371731609,
          0.262045801, 0.224926293, 0.371731609, 0.371731609,
          0.218906462, 0.371731609, 0.371731609, 0.371731609,
          0.265650719, 0.114376254, 0.174539611, 0.0783327594,
          0.482553095, 0.482553095, 0.357624739, 0.220136479,
          0.482553095, 0.247064129, 0.27208066, 0.417677313,
          0.0615149438, 0.417677313, 0.417677313, 0.417677313,
          0.346982777, 0.196876988, 0.294427931, 0.453068107, 0.30742383,
          0.0561466441, 0.146871075, 0.453068107, 0.453068107,
          0.410709172, 0.0711299181, 0.535421073, 0.158812001,
          0.0478771627, 0.121025816, 0.48766458, 0.217077106,
          0.199956879, 0.23284936, 0.535421073, 0.167699143, 0.228646219,
          0.061291948, 0.080807589, 0.419707805, 0.455550015,
          0.455550015, 0.455550015, 0.325620979, 0.320537001,
          0.487649411, 0.309462845, 0.0608557798, 0.210199237,
          0.487649411, 0.487649411, 0.171208322, 0.0775430053,
          0.535421073, 0.158812001, 0.0478771627, 0.121025816,
          0.48766458, 0.217077106, 0.199956879, 0.23284936, 0.535421073,
          0.167699143, 0.228646219, 0.061291948, 0.080807589,
          0.419707805, 0.455550015, 0.455550015, 0.455550015,
          0.325620979, 0.320537001, 0.487649411, 0.309462845,
          0.0608557798, 0.210199237, 0.487649411, 0.487649411,
          0.171208322, 0.0775430053, 0.165395319, 0.0803296342,
          0.159537792, 0.271616518, 0.473367453, 0.473367453,
          0.452574193, 0.36495164, 0.275806159, 0.130750939, 0.147335157,
          0.193374529, 0.15712364, 0.48392573, 0.48392573, 0.48392573,
          0.306060553, 0.313139349, 0.0811519027, 0.483816236,
          0.483816236, 0.249406606, 0.26744014, 0.483816236, 0.361588269,
          0.110019207, 0.0988404527, 0.435235709, 0.353460103,
          0.0689624995, 0.188617095, 0.435235709, 0.435235709,
          0.435235709, 0.0356128365, 0.267202944, 0.400424302,
          0.400424302, 0.19424285, 0.122513548, 0.400424302, 0.400424302,
          0.333803743, 0.173599452, 0.400424302, 0.251170874,
          0.410803407, 0.410803407, 0.410803407, 0.12634778, 0.244560182,
          0.115059212, 0.410803407, 0.410803407 ]
      - [ 0.449399948, 0.449399948, 0.125845447, 0.173482597,
          0.449399948, 0.449399948, 0.207702279, 0.0272109956,
          0.312819242, 0.493160695, 0.493160695, 0.0726896375,
          0.057475239, 0.493160695, 0.493160695, 0.107595854,
          0.0332316495, 0.0312460102, 0.186789349, 0.442635387,
          0.442635387, 0.100076661, 0.442635387, 0.442635387,
          0.318160981, 0.240244389, 0.0895818174, 0.402268261,
          0.360151887, 0.0575417541, 0.204594553, 0.402268261,
          0.402268261, 0.393342257, 0.199446321, 0.375693709,
          0.388894916, 0.252019107, 0.0885242075, 0.0616259985,
          0.491675705, 0.491675705, 0.491675705, 0.188729361,
          0.0885906518, 0.229118153, 0.537439942, 0.537439942,
          0.179601774, 0.147734895, 0.537439942, 0.0940584317,
          0.0131989289, 0.111844391, 0.290351421, 0.058346685,
          0.384672731, 0.420713514, 0.420713514, 0.420713514,
          0.420713514, 0.187610641, 0.130071566, 0.161769837,
          0.449780285, 0.413407385, 0.258479744, 0.15243417, 0.312563688,
          0.449780285, 0.449780285, 0.0614913367, 0.485737652,
          0.485737652, 0.485737652, 0.0515795648, 0.0767413005,
          0.0748546943, 0.080315128, 0.175444558, 0.485737652,
          0.290351421, 0.058346685, 0.384672731, 0.420713514,
          0.420713514, 0.420713514, 0.420713514, 0.187610641,
          0.130071566, 0.161769837, 0.449780285, 0.413407385,
          0.258479744, 0.15243417, 0.312563688, 0.449780285, 0.449780285,
          0.0614913367, 0.485737652, 0.485737652, 0.485737652,
          0.0515795648, 0.0767413005, 0.0748546943, 0.080315128,
          0.175444558, 0.485737652, 0.372444481, 0.372444481,
          0.372444481, 0.280142784, 0.295211583, 0.181823194, 0.32251361,
          0.372444481, 0.372444481, 0.0946168974, 0.389064461,
          0.45565635, 0.181636676, 0.147563279, 0.0849924311, 0.45565635,
          0.45565635, 0.387642354, 0.303550124, 0.469505876, 0.469505876,
          0.469505876, 0.0251932628, 0.0199964177, 0.0252666939,
          0.140541062, 0.469505876, 0.385935098, 0.385935098,
          0.385935098, 0.385935098, 0.385935098, 0.329169363,
          0.275621325, 0.216102809, 0.142811015, 0.135331035,
          0.182005003, 0.421814531, 0.421814531, 0.421814531,
          0.161158457, 0.16951859, 0.421814531, 0.421814531, 0.237562612,
          0.0754340887, 0.49198243, 0.49198243, 0.0914948285,
          0.00577778695, 0.0173098445, 0.445101768, 0.49198243,
          0.186789349, 0.442635387, 0.442635387, 0.100076661,
          0.442635387, 0.442635387, 0.318160981, 0.240244389,
          0.0895818174, 0.36572203, 0.36572203, 0.36572203, 0.127352238,
          0.36572203, 0.209426269, 0.36572203, 0.36572203, 0.36572203,
          0.149863556, 0.119259313, 0.232658416, 0.446989596,
          0.446989596, 0.291239262, 0.446989596, 0.446989596,
          0.143889844, 0.229118153, 0.537439942, 0.537439942,
          0.179601774, 0.147734895, 0.537439942, 0.0940584317,
          0.0131989289, 0.111844391, 0.0392156504, 0.497951657,
          0.497951657, 0.0158088375, 0.0180822611, 0.0153362686,
          0.497951657, 0.497951657, 0.029209666, 0.0409166962,
          0.0923455954, 0.189298615, 0.461514324, 0.0901282504,
          0.0423649959, 0.597413123, 0.597413123, 0.10621085,
          0.485737652, 0.485737652, 0.485737652, 0.0515795648,
          0.0767413005, 0.0748546943, 0.080315128, 0.175444558,
          0.485737652, 0.203905895, 0.483889252, 0.483889252,
          0.00142942241, 0.00687026558, 0.0116124097, 0.483889252,
          0.475659221, 0.157185048, 0.481202602, 0.245738685,
          0.0887704119, 0.0190869253, 0.00254404685, 0.0182045121,
          0.481202602, 0.481202602, 0.481202602, 0.485737652,
          0.485737652, 0.485737652, 0.0515795648, 0.0767413005,
          0.0748546943, 0.080315128, 0.175444558, 0.485737652,
          0.203905895, 0.483889252, 0.483889252, 0.00142942241,
          0.00687026558, 0.0116124097, 0.483889252, 0.475659221,
          0.157185048, 0.481202602, 0.245738685, 0.0887704119,
          0.0190869253, 0.00254404685, 0.0182045121, 0.481202602,
          0.481202602, 0.481202602, 0.303550124, 0.469505876,
          0.469505876, 0.469505876, 0.0251932628, 0.0199964177,
          0.0252666939, 0.140541062, 0.469505876, 0.361685038,
          0.361685038, 0.361685038, 0.283731461, 0.0130573353,
          0.361685038, 0.361685038, 0.361685038, 0.361685038,
          0.405623317, 0.269256771, 0.0403714962, 0.000415588234,
          0.00288393791, 0.485295385, 0.485295385, 0.485295385,
          0.223495647, 0.237562612, 0.0754340887, 0.49198243, 0.49198243,
          0.0914948285, 0.00577778695, 0.0173098445, 0.445101768,
          0.49198243, 0.32262516, 0.0579505302, 0.188779742, 0.499680609,
          0.310486555, 0.499680609, 0.357558221, 0.0483423248,
          0.354934037, 0.470933974, 0.470933974, 0.245683268,
          0.0130132549, 0.0596141331, 0.470933974, 0.470933974,
          0.118100792, 0.173636928 ]
      - [ 0.559099376, 0.559099376, 0.135457098, 0.0369265415,
          0.128621683, 0.559099376, 0.131494641, 0.0184193421,
          0.0524859652, 0.340446323, 0.407877654, 0.21348615,
          0.0565566011, 0.574640214, 0.574640214, 0.0305819176,
          0.016418796, 0.0398938954, 0.356713623, 0.356713623,
          0.356713623, 0.356713623, 0.356713623, 0.29587844, 0.281599581,
          0.356713623, 0.257149577, 0.235320002, 0.340263039,
          0.350951821, 0.105168022, 0.237272128, 0.50085789, 0.50085789,
          0.354432106, 0.077320762, 0.416012526, 0.355830848,
          0.416012526, 0.267444283, 0.416012526, 0.416012526,
          0.00801233388, 0.0319469087, 0.323034912, 0.353257358,
          0.353257358, 0.353257358, 0.353257358, 0.304499328,
          0.353257358, 0.173826113, 0.353257358, 0.353257358,
          0.0290717408, 0.245834544, 0.531945884, 0.0535640679,
          0.0544013306, 0.0356083028, 0.562239826, 0.562239826,
          0.10399729, 0.102837093, 0.529714048, 0.529714048, 0.254340112,
          0.529714048, 0.204565778, 0.115722239, 0.119334564,
          0.0904168412, 0.36619854, 0.36619854, 0.36619854, 0.36619854,
          0.36619854, 0.36619854, 0.241189018, 0.133211985, 0.340316951,
          0.0290717408, 0.245834544, 0.531945884, 0.0535640679,
          0.0544013306, 0.0356083028, 0.562239826, 0.562239826,
          0.10399729, 0.102837093, 0.529714048, 0.529714048, 0.254340112,
          0.529714048, 0.204565778, 0.115722239, 0.119334564,
          0.0904168412, 0.36619854, 0.36619854, 0.36619854, 0.36619854,
          0.36619854, 0.36619854, 0.241189018, 0.133211985, 0.340316951,
          0.0239053965, 0.054305017, 0.258623391, 0.539457262,
          0.0150444414, 0.0208932701, 0.224723548, 0.539457262,
          0.539457262, 0.0998012349, 0.340384781, 0.533550084,
          0.100958869, 0.00890449341, 0.0216637366, 0.0638850331,
          0.533550084, 0.533550084, 0.390983522, 0.390983522,
          0.390983522, 0.390983522, 0.15685235, 0.174396157, 0.154494882,
          0.390983522, 0.390983522, 0.0844752938, 0.0684798956,
          0.465298414, 0.502432287, 0.0876741484, 0.0290547069,
          0.0284287594, 0.502432287, 0.502432287, 0.0513352901,
          0.0918411389, 0.257852614, 0.549720109, 0.0997660458,
          0.010834422, 0.0174660571, 0.549720109, 0.549720109,
          0.349608243, 0.395303816, 0.395303816, 0.395303816,
          0.176911026, 0.214108199, 0.123933323, 0.395303816,
          0.395303816, 0.356713623, 0.356713623, 0.356713623,
          0.356713623, 0.356713623, 0.29587844, 0.281599581, 0.356713623,
          0.257149577, 0.17403394, 0.223681763, 0.386435091, 0.386435091,
          0.386435091, 0.140803337, 0.386435091, 0.386435091,
          0.386435091, 0.170273304, 0.050048966, 0.228618085,
          0.424374908, 0.424374908, 0.107361071, 0.424374908,
          0.424374908, 0.424374908, 0.353257358, 0.353257358,
          0.353257358, 0.353257358, 0.304499328, 0.353257358,
          0.173826113, 0.353257358, 0.353257358, 0.290546715,
          0.119708538, 0.320117474, 0.367943376, 0.367943376,
          0.367943376, 0.343787372, 0.367943376, 0.367943376,
          0.182071552, 0.137955204, 0.185848624, 0.396140277,
          0.396140277, 0.396140277, 0.396140277, 0.396140277,
          0.353108078, 0.36619854, 0.36619854, 0.36619854, 0.36619854,
          0.36619854, 0.36619854, 0.241189018, 0.133211985, 0.340316951,
          0.408643812, 0.142471895, 0.101450726, 0.408643812,
          0.408643812, 0.297555983, 0.204545647, 0.408643812,
          0.408643812, 0.236082301, 0.213082105, 0.102186352,
          0.204477102, 0.410489321, 0.410489321, 0.410489321,
          0.410489321, 0.410489321, 0.36619854, 0.36619854, 0.36619854,
          0.36619854, 0.36619854, 0.36619854, 0.241189018, 0.133211985,
          0.340316951, 0.408643812, 0.142471895, 0.101450726,
          0.408643812, 0.408643812, 0.297555983, 0.204545647,
          0.408643812, 0.408643812, 0.236082301, 0.213082105,
          0.102186352, 0.204477102, 0.410489321, 0.410489321,
          0.410489321, 0.410489321, 0.410489321, 0.390983522,
          0.390983522, 0.390983522, 0.390983522, 0.15685235, 0.174396157,
          0.154494882, 0.390983522, 0.390983522, 0.346871108,
          0.321132094, 0.226211593, 0.346871108, 0.346871108,
          0.346871108, 0.346871108, 0.346871108, 0.346871108,
          0.124297284, 0.182027698, 0.127782136, 0.110532589,
          0.0820796639, 0.502610743, 0.502610743, 0.502610743,
          0.391485363, 0.349608243, 0.395303816, 0.395303816,
          0.395303816, 0.176911026, 0.214108199, 0.123933323,
          0.395303816, 0.395303816, 0.342421025, 0.236417517,
          0.128128171, 0.32187593, 0.388131827, 0.388131827, 0.388131827,
          0.316813499, 0.388131827, 0.38845706, 0.38845706, 0.0156214582,
          0.00971181691, 0.355482548, 0.38845706, 0.38845706, 0.33899647,
          0.38845706 ]
      - [ 0.445058316, 0.445058316, 0.0292007532, 0.0182158351,
          0.144401252, 0.445058316, 0.445058316, 0.319667578,
          0.281110495, 0.433767945, 0.433767945, 0.433767945,
          0.0811013505, 0.433767945, 0.433767945, 0.197845384,
          0.0694647655, 0.0659430102, 0.454653263, 0.472079575,
          0.472079575, 0.038270589, 0.124696366, 0.0705417022,
          0.432189792, 0.216692001, 0.295167029, 0.264840782,
          0.156214505, 0.0876731426, 0.0246274751, 0.114309333,
          0.646392703, 0.646392703, 0.136668637, 0.152702048,
          0.0332932025, 0.6875211, 0.6875211, 0.0295335986, 0.032008525,
          0.061995063, 0.164604351, 0.111242175, 0.0380556323,
          0.00124370912, 0.566989005, 0.566989005, 0.00780079747,
          0.00780059351, 0.019568013, 0.566989005, 0.170127854,
          0.0214228407, 0.208680287, 0.394811898, 0.428810686,
          0.388862997, 0.185399652, 0.254990339, 0.428810686,
          0.415017158, 0.0754231066, 0.444816917, 0.444816917,
          0.444816917, 0.0172221083, 0.00585707137, 0.00980150793,
          0.0762851387, 0.444816917, 0.444816917, 0.0519809164,
          0.549916029, 0.549916029, 0.000794815947, 0.00240768143,
          0.0291831065, 0.549916029, 0.268821955, 0.107052438,
          0.208680287, 0.394811898, 0.428810686, 0.388862997,
          0.185399652, 0.254990339, 0.428810686, 0.415017158,
          0.0754231066, 0.444816917, 0.444816917, 0.444816917,
          0.0172221083, 0.00585707137, 0.00980150793, 0.0762851387,
          0.444816917, 0.444816917, 0.0519809164, 0.549916029,
          0.549916029, 0.000794815947, 0.00240768143, 0.0291831065,
          0.549916029, 0.268821955, 0.107052438, 0.039303042,
          0.436380297, 0.436380297, 0.307186902, 0.279625595,
          0.101109609, 0.417519361, 0.436380297, 0.256345838,
          0.199487135, 0.470784098, 0.470784098, 0.377357334,
          0.0183730908, 0.0169658102, 0.00135379576, 0.384140283,
          0.470784098, 0.406506509, 0.406506509, 0.406506509,
          0.0645205677, 0.00689907838, 0.0156002212, 0.406506509,
          0.406506509, 0.406506509, 0.0862426087, 0.116061069,
          0.46315667, 0.46315667, 0.270814717, 0.0882059187, 0.18785277,
          0.46315667, 0.46315667, 0.114319816, 0.157617927, 0.63315767,
          0.63315767, 0.0221901853, 0.0213728882, 0.00419199048,
          0.193787828, 0.339806467, 0.101126693, 0.0879581943,
          0.542163372, 0.542163372, 0.241106421, 0.542163372,
          0.159568876, 0.0353061073, 0.0997901335, 0.454653263,
          0.472079575, 0.472079575, 0.038270589, 0.124696366,
          0.0705417022, 0.432189792, 0.216692001, 0.295167029,
          0.179295197, 0.059780024, 0.129108965, 0.309766591,
          0.225854188, 0.0293073431, 0.593678415, 0.593678415,
          0.298245043, 0.039932102, 0.0481788591, 0.637149751,
          0.64739269, 0.392587006, 0.0561093315, 0.0826423839,
          0.0179772042, 0.0108594978, 0.00124370912, 0.566989005,
          0.566989005, 0.00780079747, 0.00780059351, 0.019568013,
          0.566989005, 0.170127854, 0.0214228407, 0.00413837703,
          0.0383871645, 0.0946071893, 0.0120170806, 0.0136431633,
          0.0303906668, 0.737653434, 0.66068083, 0.0176060125,
          0.0721845627, 0.478524417, 0.59980911, 0.59980911,
          0.0717023537, 0.0653870851, 0.161862075, 0.0678330436,
          0.00745898765, 0.0519809164, 0.549916029, 0.549916029,
          0.000794815947, 0.00240768143, 0.0291831065, 0.549916029,
          0.268821955, 0.107052438, 0.427878559, 0.353871614,
          0.0468097292, 0.00461910572, 0.000463634904, 0.0221612584,
          0.565976679, 0.565976679, 0.206591681, 0.399007291,
          0.399007291, 0.399007291, 0.184264019, 0.0806073174,
          0.0179546177, 0.399007291, 0.399007291, 0.399007291,
          0.0519809164, 0.549916029, 0.549916029, 0.000794815947,
          0.00240768143, 0.0291831065, 0.549916029, 0.268821955,
          0.107052438, 0.427878559, 0.353871614, 0.0468097292,
          0.00461910572, 0.000463634904, 0.0221612584, 0.565976679,
          0.565976679, 0.206591681, 0.399007291, 0.399007291,
          0.399007291, 0.184264019, 0.0806073174, 0.0179546177,
          0.399007291, 0.399007291, 0.399007291, 0.406506509,
          0.406506509, 0.406506509, 0.0645205677, 0.00689907838,
          0.0156002212, 0.406506509, 0.406506509, 0.406506509,
          0.460362881, 0.460362881, 0.015968401, 0.000504494295,
          0.00394806312, 0.303715378, 0.460362881, 0.460362881,
          0.234844565, 0.350226969, 0.460069597, 0.0730092227,
          0.0218384806, 0.0138483113, 0.25597626, 0.532535136,
          0.532535136, 0.147134438, 0.101126693, 0.0879581943,
          0.542163372, 0.542163372, 0.241106421, 0.542163372,
          0.159568876, 0.0353061073, 0.0997901335, 0.26745069,
          0.149917841, 0.0620009564, 0.0221940726, 0.0916944891,
          0.663049877, 0.663049877, 0.0316416286, 0.079745166,
          0.486635536, 0.486635536, 0.172865421, 0.0324548483,
          0.0847213641, 0.486635536, 0.486635536, 0.0661460608,
          0.0734452531 ]
      - [ 0.466726214, 0.466726214, 0.0805146694, 0.0167385209,
          0.466726214, 0.466726214, 0.0174971242, 0.0253413413,
          0.341018468, 0.604051709, 0.196870536, 0.0243641548,
          0.0441878363, 0.422938526, 0.209285811, 0.0140088052,
          0.00580292661, 0.604051709, 0.634900391, 0.0633515641,
          0.0153651685, 0.0655505285, 0.407506704, 0.0976537764,
          0.0440968908, 0.0370815322, 0.634900391, 0.55848825,
          0.55848825, 0.55848825, 0.0493993536, 0.0354824625,
          0.0586949512, 0.136505321, 0.0359502696, 0.177834615,
          0.443195164, 0.12360476, 0.0518311374, 0.0499493927,
          0.443195164, 0.443195164, 0.434120595, 0.0310633052,
          0.443195164, 0.572504938, 0.00126950291, 0.00032020142,
          0.0503632948, 0.572504938, 0.0917314887, 0.00612998707,
          0.00263670296, 0.572504938, 0.0506078228, 0.601248145,
          0.601248145, 0.0271676201, 0.0232314542, 0.0223748926,
          0.436305434, 0.236551449, 0.142616048, 0.233750358,
          0.121295847, 0.109389476, 0.0215766281, 0.46755439,
          0.331813097, 0.53691113, 0.53691113, 0.0871800855, 0.409547001,
          0.0979415849, 0.0185287111, 0.0555222556, 0.642708898,
          0.242994085, 0.358987391, 0.353143185, 0.295183003,
          0.0506078228, 0.601248145, 0.601248145, 0.0271676201,
          0.0232314542, 0.0223748926, 0.436305434, 0.236551449,
          0.142616048, 0.233750358, 0.121295847, 0.109389476,
          0.0215766281, 0.46755439, 0.331813097, 0.53691113, 0.53691113,
          0.0871800855, 0.409547001, 0.0979415849, 0.0185287111,
          0.0555222556, 0.642708898, 0.242994085, 0.358987391,
          0.353143185, 0.295183003, 0.421713799, 0.421713799,
          0.421713799, 0.185469195, 0.0520738214, 0.0192993581,
          0.262853056, 0.421713799, 0.421713799, 0.448344439,
          0.310256332, 0.0633356124, 0.00371426786, 0.018645769,
          0.301394731, 0.448344439, 0.448344439, 0.448344439,
          0.496542513, 0.156051576, 0.0327010043, 0.027296355,
          0.0112192081, 0.333567798, 0.514066935, 0.514066935,
          0.28674373, 0.0974745601, 0.0482980832, 0.26745382, 0.57683295,
          0.479216337, 0.518921971, 0.0261565726, 0.147430405,
          0.238306507, 0.127814606, 0.0230521895, 0.0270109214,
          0.0913911685, 0.531037807, 0.731811583, 0.36168921,
          0.0665859655, 0.118081696, 0.166908801, 0.0460601822,
          0.194671601, 0.20877701, 0.163799882, 0.643665373, 0.643665373,
          0.12948069, 0.0995137617, 0.634900391, 0.0633515641,
          0.0153651685, 0.0655505285, 0.407506704, 0.0976537764,
          0.0440968908, 0.0370815322, 0.634900391, 0.544659078,
          0.0129090212, 0.0375916101, 0.424908608, 0.431903273,
          0.1551359, 0.0817750618, 0.042802792, 0.544659078, 0.494702667,
          0.0104142269, 0.131722108, 0.494702667, 0.20572719,
          0.00404842058, 0.0600080974, 0.444372237, 0.494702667,
          0.572504938, 0.00126950291, 0.00032020142, 0.0503632948,
          0.572504938, 0.0917314887, 0.00612998707, 0.00263670296,
          0.572504938, 0.574038625, 0.000129594206, 2.87657822e-05,
          0.0231721625, 0.574038625, 0.071902521, 0.000174560293,
          0.000322759326, 0.574038625, 0.485909194, 0.00482062669,
          0.0174499545, 0.104170009, 0.485909194, 0.317863882,
          0.304936677, 0.285693198, 0.485909194, 0.409547001,
          0.0979415849, 0.0185287111, 0.0555222556, 0.642708898,
          0.242994085, 0.358987391, 0.353143185, 0.295183003,
          0.111430943, 0.0279472414, 0.0100755105, 0.0890814289,
          0.941865265, 0.203677282, 0.0408187322, 0.0303979181,
          0.195406571, 0.146764651, 0.0725168362, 0.0635763407,
          0.187305272, 0.805863678, 0.452935964, 0.185086265,
          0.157604247, 0.111222513, 0.409547001, 0.0979415849,
          0.0185287111, 0.0555222556, 0.642708898, 0.242994085,
          0.358987391, 0.353143185, 0.295183003, 0.111430943,
          0.0279472414, 0.0100755105, 0.0890814289, 0.941865265,
          0.203677282, 0.0408187322, 0.0303979181, 0.195406571,
          0.146764651, 0.0725168362, 0.0635763407, 0.187305272,
          0.805863678, 0.452935964, 0.185086265, 0.157604247,
          0.111222513, 0.496542513, 0.156051576, 0.0327010043,
          0.027296355, 0.0112192081, 0.333567798, 0.514066935,
          0.514066935, 0.28674373, 0.122221231, 0.226454169, 0.204837576,
          0.184709325, 0.427431047, 0.250433803, 0.52815026, 0.52815026,
          0.221653417, 0.31919685, 0.392399937, 0.335387498, 0.285049886,
          0.31295827, 0.38821134, 0.392399937, 0.362426907, 0.111783013,
          0.166908801, 0.0460601822, 0.194671601, 0.20877701,
          0.163799882, 0.643665373, 0.643665373, 0.12948069,
          0.0995137617, 0.500289619, 0.466828257, 0.139162049,
          0.153783426, 0.22106488, 0.0711860284, 0.462558419,
          0.391626537, 0.250001609, 0.552698016, 0.552698016,
          0.0267488919, 0.0275115538, 0.107854955, 0.552698016,
          0.245925754, 0.0529220589, 0.0408685133 ]
      - [ 0.392896265, 0.392896265, 0.392896265, 0.109059192,
          0.112289168, 0.392896265, 0.310837299, 0.321115345,
          0.392896265, 0.378510952, 0.378510952, 0.378510952,
          0.214292541, 0.19614704, 0.363845557, 0.378510952, 0.251171917,
          0.378510952, 0.478897661, 0.478897661, 0.478897661,
          0.186109096, 0.126745075, 0.0705600008, 0.123051338,
          0.0838065445, 0.478897661, 0.31126368, 0.51924485, 0.51924485,
          0.0330199338, 0.0633003041, 0.114230685, 0.0666975155,
          0.478263974, 0.327670693, 0.0555638447, 0.35224703,
          0.445973307, 0.125110835, 0.0845512152, 0.445973307,
          0.445973307, 0.445973307, 0.223628014, 0.0499110259,
          0.534098089, 0.560406923, 0.552520752, 0.0736083314,
          0.125803888, 0.238002315, 0.0551874973, 0.0798829719,
          0.014332179, 0.668234289, 0.668234289, 0.0906654, 0.0235829614,
          0.0190764815, 0.265211642, 0.142361641, 0.0174612366,
          0.0566868968, 0.240168035, 0.533520162, 0.0603889376,
          0.0046742009, 0.173755959, 0.533520162, 0.533520162,
          0.214444995, 0.155686975, 0.396285802, 0.53240031, 0.53240031,
          0.118956119, 0.0584597848, 0.289126426, 0.2776151, 0.261284649,
          0.014332179, 0.668234289, 0.668234289, 0.0906654, 0.0235829614,
          0.0190764815, 0.265211642, 0.142361641, 0.0174612366,
          0.0566868968, 0.240168035, 0.533520162, 0.0603889376,
          0.0046742009, 0.173755959, 0.533520162, 0.533520162,
          0.214444995, 0.155686975, 0.396285802, 0.53240031, 0.53240031,
          0.118956119, 0.0584597848, 0.289126426, 0.2776151, 0.261284649,
          0.0477414951, 0.0844372064, 0.686970651, 0.686970651,
          0.0544693805, 0.00925533473, 0.117023818, 0.101723403,
          0.113053218, 0.419978827, 0.147665396, 0.314311624,
          0.376308531, 0.0517297499, 0.0152106052, 0.429810822,
          0.429810822, 0.429810822, 0.542200029, 0.185685262,
          0.285362095, 0.291662604, 0.0846070498, 0.0557906404,
          0.0375470556, 0.440414757, 0.542200029, 0.184202164,
          0.236583009, 0.578296602, 0.578296602, 0.297154576,
          0.00227370556, 0.255795181, 0.173626408, 0.22712636,
          0.0711557046, 0.034304142, 0.470647424, 0.614693999,
          0.614693999, 0.0443318337, 0.0205624755, 0.0173264779,
          0.0879091918, 0.145534977, 0.00283530704, 0.0107169123,
          0.54207176, 0.544860601, 0.544860601, 0.0118943471,
          0.0645540357, 0.285234749, 0.478897661, 0.478897661,
          0.478897661, 0.186109096, 0.126745075, 0.0705600008,
          0.123051338, 0.0838065445, 0.478897661, 0.395183712,
          0.0461145788, 0.0408035517, 0.00464563491, 0.00524335587, 0.,
          0.00544167031, 0.645567358, 0.645567358, 0.0615991913,
          0.107100219, 0.104639255, 0.00269033248, 0.0243495312,
          0.0672738403, 0.566569269, 0.566569269, 0.566569269,
          0.0499110259, 0.534098089, 0.560406923, 0.552520752,
          0.0736083314, 0.125803888, 0.238002315, 0.0551874973,
          0.0798829719, 0.223509178, 0.0399628915, 0.126426309,
          0.476199985, 0.250353903, 0.0964125842, 0.226142213,
          0.537223876, 0.537223876, 0.00494819367, 0.00699411379,
          0.00814328995, 0.0109913172, 0.0107633676, 0.0478389673,
          0.683326662, 0.683326662, 0.237997785, 0.155686975,
          0.396285802, 0.53240031, 0.53240031, 0.118956119, 0.0584597848,
          0.289126426, 0.2776151, 0.261284649, 0.0587481558, 0.145179972,
          0.532674611, 0.564045072, 0.564045072, 0.178034112,
          0.0496313944, 0.0877318829, 0.0891442299, 0.0176995713,
          0.148718625, 0.206455693, 0.277921081, 0.232631817,
          0.0855824053, 0.628397107, 0.628397107, 0.0149554731,
          0.155686975, 0.396285802, 0.53240031, 0.53240031, 0.118956119,
          0.0584597848, 0.289126426, 0.2776151, 0.261284649,
          0.0587481558, 0.145179972, 0.532674611, 0.564045072,
          0.564045072, 0.178034112, 0.0496313944, 0.0877318829,
          0.0891442299, 0.0176995713, 0.148718625, 0.206455693,
          0.277921081, 0.232631817, 0.0855824053, 0.628397107,
          0.628397107, 0.0149554731, 0.542200029, 0.185685262,
          0.285362095, 0.291662604, 0.0846070498, 0.0557906404,
          0.0375470556, 0.440414757, 0.542200029, 0.101778455,
          0.180054739, 0.30783236, 0.415880352, 0.415880352, 0.341867,
          0.222726956, 0.415880352, 0.415880352, 0.0462663248,
          0.245504647, 0.445038855, 0.445038855, 0.327652246,
          0.445038855, 0.445038855, 0.181278676, 0.02617958, 0.145534977,
          0.00283530704, 0.0107169123, 0.54207176, 0.544860601,
          0.544860601, 0.0118943471, 0.0645540357, 0.285234749,
          0.00482809963, 0.0481263958, 0.0450967774, 0.0584046654,
          0.484109253, 0.484109253, 0.484109253, 0.484109253,
          0.223457485, 0.0383820981, 0.148170039, 0.412523091,
          0.439868301, 0.439868301, 0.439868301, 0.439868301,
          0.166144714, 0.0215107221 ]
      - [ 0.465414584, 0.465414584, 0.465414584, 0.166620269,
          0.155900344, 0.383113891, 0.139072224, 0.0937419832,
          0.344306588, 0.664822519, 0.664822519, 0.102422498,
          0.0253743641, 0.0965106264, 0.23987934, 0.145097673,
          0.0234316289, 0.0989545807, 0.460317224, 0.299928397,
          0.0980677903, 0.0562608652, 0.460317224, 0.460317224,
          0.204312414, 0.0578895286, 0.460317224, 0.144782171,
          0.694063544, 0.694063544, 0.0606738962, 0.0303918943,
          0.0314836986, 0.0481661446, 0.0253051445, 0.0102319047,
          0.383764595, 0.383764595, 0.383764595, 0.0548540764,
          0.154692575, 0.383764595, 0.383764595, 0.292533547,
          0.383764595, 0.378268719, 0.259646028, 0.286729038,
          0.232978642, 0.378268719, 0.378268719, 0.378268719,
          0.277265221, 0.378268719, 0.00144076813, 0.424069971,
          0.63621062, 0.63621062, 0.0435862169, 0.0424066372,
          0.0233578663, 0.00598492334, 0.00182055333, 0.17114009,
          0.332907677, 0.421736866, 0.421736866, 0.224934727,
          0.421736866, 0.421736866, 0.286531895, 0.107361026,
          0.405001849, 0.358567059, 0.113112211, 0.382319331,
          0.405001849, 0.405001849, 0.155355617, 0.167869017,
          0.405001849, 0.00144076813, 0.424069971, 0.63621062,
          0.63621062, 0.0435862169, 0.0424066372, 0.0233578663,
          0.00598492334, 0.00182055333, 0.17114009, 0.332907677,
          0.421736866, 0.421736866, 0.224934727, 0.421736866,
          0.421736866, 0.286531895, 0.107361026, 0.405001849,
          0.358567059, 0.113112211, 0.382319331, 0.405001849,
          0.405001849, 0.155355617, 0.167869017, 0.405001849,
          0.113294438, 0.554914057, 0.554914057, 0.554914057,
          0.153092399, 0.155710906, 0.0787647218, 0.0606938265,
          0.016228728, 0.0190611444, 0.0809827298, 0.366874874,
          0.46309185, 0.46309185, 0.102113985, 0.406733811, 0.46309185,
          0.186101913, 0.30589518, 0.175618395, 0.155318543, 0.442813247,
          0.442813247, 0.226189345, 0.107439287, 0.442813247,
          0.442813247, 0.280516088, 0.377120823, 0.359459043,
          0.377120823, 0.377120823, 0.377120823, 0.377120823,
          0.268265486, 0.0725618154, 0.0288798474, 0.0901110023,
          0.458620936, 0.458620936, 0.458620936, 0.458620936,
          0.330881327, 0.126811519, 0.139888257, 0.10994897, 0.145518258,
          0.466809511, 0.466809511, 0.466809511, 0.387199491,
          0.210456938, 0.0748981237, 0.329415321, 0.460317224,
          0.299928397, 0.0980677903, 0.0562608652, 0.460317224,
          0.460317224, 0.204312414, 0.0578895286, 0.460317224,
          0.366874933, 0.32024315, 0.366874933, 0.202972099, 0.366874933,
          0.366874933, 0.212127358, 0.366874933, 0.366874933,
          0.371587396, 0.188720614, 0.350224108, 0.0524025597,
          0.0408222117, 0.0248872638, 0.0838747174, 0.585549533,
          0.585549533, 0.378268719, 0.259646028, 0.286729038,
          0.232978642, 0.378268719, 0.378268719, 0.378268719,
          0.277265221, 0.378268719, 0.342526197, 0.342526197,
          0.342526197, 0.342526197, 0.342526197, 0.342526197,
          0.304853439, 0.287006319, 0.342526197, 0.190450981,
          0.319108099, 0.469576746, 0.250554472, 0.0561897382,
          0.0252612345, 0.469576746, 0.469576746, 0.359344333,
          0.405001849, 0.358567059, 0.113112211, 0.382319331,
          0.405001849, 0.405001849, 0.155355617, 0.167869017,
          0.405001849, 0.389034182, 0.21849291, 0.389621913, 0.389621913,
          0.389621913, 0.15340744, 0.120253347, 0.389621913, 0.389621913,
          0.144846827, 0.220728114, 0.495902389, 0.278665245,
          0.0779789537, 0.495902389, 0.495902389, 0.318943024,
          0.046133887, 0.405001849, 0.358567059, 0.113112211,
          0.382319331, 0.405001849, 0.405001849, 0.155355617,
          0.167869017, 0.405001849, 0.389034182, 0.21849291, 0.389621913,
          0.389621913, 0.389621913, 0.15340744, 0.120253347, 0.389621913,
          0.389621913, 0.144846827, 0.220728114, 0.495902389,
          0.278665245, 0.0779789537, 0.495902389, 0.495902389,
          0.318943024, 0.046133887, 0.30589518, 0.175618395, 0.155318543,
          0.442813247, 0.442813247, 0.226189345, 0.107439287,
          0.442813247, 0.442813247, 0.410784096, 0.410784096,
          0.327360153, 0.200330317, 0.410784096, 0.410784096,
          0.274121642, 0.222126573, 0.221680269, 0.0311939716,
          0.279841214, 0.214831397, 0.0798261166, 0.558760166,
          0.567707002, 0.476955563, 0.0226543266, 0.00425076159,
          0.10994897, 0.145518258, 0.466809511, 0.466809511, 0.466809511,
          0.387199491, 0.210456938, 0.0748981237, 0.329415321,
          0.240624562, 0.143185988, 0.02320957, 0.161345884, 0.651145339,
          0.651145339, 0.189804778, 0.0258733947, 0.0620473363,
          0.189040229, 0.288419306, 0.467889041, 0.467889041,
          0.467889041, 0.467889041, 0.0243902821, 0.00568001484,
          0.00984821469 ]
      - [ 0.69700253, 0.69700253, 0.0215251539, 0.00148557755,
          0.000621512067, 0.00653887121, 0.0049565779, 0.00823615585,
          0.144277871, 0.529562712, 0.529562712, 0.0253891405,
          0.0095973229, 0.07334885, 0.529562712, 0.112859719,
          0.00686715031, 0.366742343, 0.444365978, 0.198846668,
          0.408582985, 0.15159218, 0.347017527, 0.444365978, 0.202233881,
          0.111346319, 0.444365978, 0.529282808, 0.62673229, 0.286123365,
          0.0223157108, 0.00871526171, 0.247147769, 0.407414526,
          0.0964989513, 0.0445862748, 0.436460733, 0.388076365,
          0.165308312, 0.230526835, 0.329888016, 0.436460733,
          0.436460733, 0.11251761, 0.267558157, 0.343511283, 0.343511283,
          0.343511283, 0.229276747, 0.343511283, 0.343511283,
          0.343511283, 0.343511283, 0.343511283, 0.140542477,
          0.504903078, 0.504903078, 0.0307041388, 0.022252474,
          0.0733035654, 0.504903078, 0.392790884, 0.222098514,
          0.429938525, 0.056854818, 0.0625851825, 0.1451938, 0.364146829,
          0.429938525, 0.429938525, 0.309003532, 0.429938525, 0.47384721,
          0.198983088, 0.0246523302, 0.223791718, 0.47384721,
          0.396280199, 0.0553801991, 0.266990393, 0.47384721,
          0.140542477, 0.504903078, 0.504903078, 0.0307041388,
          0.022252474, 0.0733035654, 0.504903078, 0.392790884,
          0.222098514, 0.429938525, 0.056854818, 0.0625851825, 0.1451938,
          0.364146829, 0.429938525, 0.429938525, 0.309003532,
          0.429938525, 0.47384721, 0.198983088, 0.0246523302,
          0.223791718, 0.47384721, 0.396280199, 0.0553801991,
          0.266990393, 0.47384721, 0.011361531, 0.159913108, 0.598871171,
          0.598871171, 0.0632237047, 0.0565496832, 0.469298154,
          0.152522132, 0.0180770624, 0.429567665, 0.429567665,
          0.354210943, 0.109199248, 0.237509012, 0.429567665,
          0.429567665, 0.229365379, 0.105766088, 0.459172696, 0.17758432,
          0.125308186, 0.236832887, 0.459172696, 0.459172696,
          0.116315283, 0.187611416, 0.459172696, 0.0135219423,
          0.0374171622, 0.670966089, 0.670966089, 0.197308481,
          0.0261953361, 0.187496796, 0.128098965, 0.0121142175,
          0.0603613332, 0.105484731, 0.402651757, 0.402651757,
          0.402651757, 0.0918496028, 0.402651757, 0.402651757,
          0.402651757, 0.4217619, 0.166555405, 0.152310267, 0.4217619,
          0.4217619, 0.4217619, 0.10885293, 0.208766192, 0.4217619,
          0.444365978, 0.198846668, 0.408582985, 0.15159218, 0.347017527,
          0.444365978, 0.202233881, 0.111346319, 0.444365978,
          0.223542884, 0.238510624, 0.52216208, 0.16463238, 0.129915401,
          0.155627191, 0.0420130193, 0.52216208, 0.52216208,
          0.0177509785, 0.00133880833, 0.000395274925, 0.,
          6.21667505e-06, 0.00125347439, 0.111988142, 0.700054228,
          0.700054228, 0.343511283, 0.343511283, 0.343511283,
          0.229276747, 0.343511283, 0.343511283, 0.343511283,
          0.343511283, 0.343511283, 0.282585949, 0.428466707,
          0.428466707, 0.428466707, 0.428466707, 0.124945179,
          0.204817578, 0.270032495, 0.225944787, 0.0144942729,
          0.0658532456, 0.105822839, 0.0187854208, 0.0189577043,
          0.0563161857, 0.554500759, 0.577552021, 0.577552021,
          0.47384721, 0.198983088, 0.0246523302, 0.223791718, 0.47384721,
          0.396280199, 0.0553801991, 0.266990393, 0.47384721,
          0.403336287, 0.403336287, 0.403336287, 0.403336287,
          0.403336287, 0.0399434492, 0.034176413, 0.130867556,
          0.403336287, 0.0653823689, 0.196735039, 0.198822781,
          0.0670983195, 0.0273468737, 0.0997824296, 0.668725491,
          0.668725491, 0.0349253714, 0.47384721, 0.198983088,
          0.0246523302, 0.223791718, 0.47384721, 0.396280199,
          0.0553801991, 0.266990393, 0.47384721, 0.403336287,
          0.403336287, 0.403336287, 0.403336287, 0.403336287,
          0.0399434492, 0.034176413, 0.130867556, 0.403336287,
          0.0653823689, 0.196735039, 0.198822781, 0.0670983195,
          0.0273468737, 0.0997824296, 0.668725491, 0.668725491,
          0.0349253714, 0.459172696, 0.17758432, 0.125308186,
          0.236832887, 0.459172696, 0.459172696, 0.116315283,
          0.187611416, 0.459172696, 0.135786191, 0.161412552,
          0.398221701, 0.398221701, 0.398221701, 0.135248601,
          0.374613076, 0.398221701, 0.398221701, 0.00605768431,
          0.134383366, 0.554412305, 0.202711523, 0.0561857745,
          0.554412305, 0.554412305, 0.099930115, 0.00380163593,
          0.4217619, 0.166555405, 0.152310267, 0.4217619, 0.4217619,
          0.4217619, 0.10885293, 0.208766192, 0.4217619, 0.409659624,
          0.409659624, 0.358778775, 0.0411288552, 0.409659624,
          0.409659624, 0.409659624, 0.144474447, 0.07426963,
          0.0433806516, 0.281478465, 0.240493417, 0.0193367898,
          0.111982837, 0.648688495, 0.648688495, 0.00735646905,
          0.00356300757 ]
      - [ 0.538712382, 0.538712382, 0.211851165, 0.0712643415,
          0.185364276, 0.153490692, 0.0696883127, 0.106074408,
          0.538712382, 0.208356172, 0.0525072515, 0.0857486948,
          0.210877597, 0.25734362, 0.135004476, 0.50003171, 0.530202746,
          0.530202746, 0.0984217599, 0.0351877436, 0.0835741162,
          0.0512370616, 0.035514906, 0.0192865599, 0.569253147,
          0.569253147, 0.569253147, 0.037596114, 0.430848181,
          0.430848181, 0.222829625, 0.430848181, 0.430848181,
          0.430848181, 0.12742801, 0.0155235715, 0.0049877353,
          0.015206771, 0.187214181, 0.459773868, 0.459773868,
          0.353628963, 0.459773868, 0.447942644, 0.0148425056,
          0.00729094166, 0.0243216977, 0.166392073, 0.462579399,
          0.363230079, 0.408486456, 0.476277649, 0.476277649,
          0.0213124715, 0.0122890677, 0.558156908, 0.558156908,
          0.0115826437, 0.0520918369, 0.0628784373, 0.558156908,
          0.227909967, 0.0302218217, 0.493324906, 0.0177855082,
          0.0737748966, 0.0853431225, 0.0748806447, 0.0542713627,
          0.493324906, 0.493324906, 0.493324906, 0.677586138,
          0.0395424254, 0.0292717982, 0.0810649842, 0.130619779,
          0.127759948, 0.135404512, 0.119495817, 0.677586138,
          0.0122890677, 0.558156908, 0.558156908, 0.0115826437,
          0.0520918369, 0.0628784373, 0.558156908, 0.227909967,
          0.0302218217, 0.493324906, 0.0177855082, 0.0737748966,
          0.0853431225, 0.0748806447, 0.0542713627, 0.493324906,
          0.493324906, 0.493324906, 0.677586138, 0.0395424254,
          0.0292717982, 0.0810649842, 0.130619779, 0.127759948,
          0.135404512, 0.119495817, 0.677586138, 0.0190748796,
          0.325144351, 0.536365807, 0.536365807, 0.536365807,
          0.0730656758, 0.0815586597, 0.0984689072, 0.0617213883,
          0.515124321, 0.00631032465, 0.0497181192, 0.119118422,
          0.515124321, 0.267986566, 0.173412472, 0.283207834,
          0.515124321, 0.542879105, 0.000371850649, 0.000530642108,
          0.00817418937, 0.542879105, 0.332195371, 0.000589017,
          0.00199415954, 0.542879105, 0.144016713, 0.16110684,
          0.408314109, 0.474433154, 0.474433154, 0.168355063,
          0.0901854783, 0.264778078, 0.474433154, 0.149523214,
          0.00804343447, 0.0163247418, 0.147397906, 0.765087366,
          0.502846062, 0.0527519584, 0.0662646666, 0.320254236,
          0.504165292, 0.0447739549, 0.00953415129, 0.0261168592,
          0.617338002, 0.534208298, 0.0267448686, 0.0604763962,
          0.256940603, 0.0984217599, 0.0351877436, 0.0835741162,
          0.0512370616, 0.035514906, 0.0192865599, 0.569253147,
          0.569253147, 0.569253147, 0.0762472674, 0.0502402931,
          0.132806465, 0.241834834, 0.188697353, 0.331452399,
          0.597689807, 0.585908771, 0.252156973, 0.110949621,
          0.0301505383, 0.552016139, 0.552016139, 0.362880111,
          0.106609903, 0.212473452, 0.408986211, 0.127916574,
          0.00729094166, 0.0243216977, 0.166392073, 0.462579399,
          0.363230079, 0.408486456, 0.476277649, 0.476277649,
          0.0213124715, 0.0972878337, 0.0432044007, 0.100283377,
          0.022286972, 0.122622341, 0.537247241, 0.542633057,
          0.542633057, 0.283061743, 0.508574545, 0.254092664,
          0.147300825, 0.190436929, 0.239843234, 0.238277555,
          0.485364437, 0.41047442, 0.308831722, 0.677586138,
          0.0395424254, 0.0292717982, 0.0810649842, 0.130619779,
          0.127759948, 0.135404512, 0.119495817, 0.677586138,
          0.703042686, 0.00838717259, 0.00223698467, 0.000816572981,
          0.00421290053, 0.0161210913, 0.0320015326, 0.0553737581,
          0.703042686, 0.579629421, 0.0564349331, 0.0103670741,
          0.00418334454, 0.00358367758, 0.0194785502, 0.41063109,
          0.38723588, 0.579629421, 0.677586138, 0.0395424254,
          0.0292717982, 0.0810649842, 0.130619779, 0.127759948,
          0.135404512, 0.119495817, 0.677586138, 0.703042686,
          0.00838717259, 0.00223698467, 0.000816572981, 0.00421290053,
          0.0161210913, 0.0320015326, 0.0553737581, 0.703042686,
          0.579629421, 0.0564349331, 0.0103670741, 0.00418334454,
          0.00358367758, 0.0194785502, 0.41063109, 0.38723588,
          0.579629421, 0.542879105, 0.000371850649, 0.000530642108,
          0.00817418937, 0.542879105, 0.332195371, 0.000589017,
          0.00199415954, 0.542879105, 0.541094899, 0.0047605671, 0.,
          0.0196838882, 0.541094899, 0.340323806, 0.00141150854,
          0.00359659526, 0.541094899, 0.421593517, 0.249741793,
          0.0361102894, 0.0317974351, 0.421593517, 0.421593517,
          0.421593517, 0.269906968, 0.383781672, 0.504165292,
          0.0447739549, 0.00953415129, 0.0261168592, 0.617338002,
          0.534208298, 0.0267448686, 0.0604763962, 0.256940603,
          0.529127955, 0.529127955, 0.0510809533, 0.0904727206,
          0.529127955, 0.328262925, 0.0975743756, 0.0323003195,
          0.160223067, 0.454216808, 0.454216808, 0.121510021,
          0.0419651493, 0.454216808, 0.454216808, 0.354732394,
          0.15185079, 0.0692225993 ]
      - [ 0.427251577, 0.427251577, 0.402752489, 0., 0.0715196729,
          0.163305283, 0.427251577, 0.389291883, 0.320248455,
          0.450512558, 0.450512558, 0.450512558, 0.0214932915,
          0.116615787, 0.450512558, 0.320457697, 0.0701888427,
          0.248943776, 0.154464737, 0.218782127, 0.147115663,
          0.131235689, 0.529098213, 0.529098213, 0.529098213,
          0.177834705, 0.112539791, 0.410531342, 0.410531342,
          0.410531342, 6.16024772e-05, 0.00501375925, 0.410531342,
          0.410531342, 0.360678256, 0.152003601, 0.155524537,
          0.553252816, 0.200608477, 0.0356367417, 0.0982285887,
          0.553252816, 0.553252816, 0.0143722454, 0.0255355369,
          0.35942027, 0.330422699, 0.103110671, 0.178769797, 0.36169222,
          0.399797112, 0.399797112, 0.369950593, 0.357342064,
          0.168686271, 0.405110776, 0.474386394, 0.0103008896,
          0.00362422597, 0.536837995, 0.536837995, 0.0150093036,
          0.0170926154, 0.429739505, 0.463035077, 0.334688723,
          0.0492058881, 0.065973416, 0.463035077, 0.463035077,
          0.129629955, 0.178606257, 0.38460356, 0.38460356, 0.352566093,
          0.170002833, 0.284237951, 0.364908844, 0.193195745, 0.38460356,
          0.38460356, 0.168686271, 0.405110776, 0.474386394,
          0.0103008896, 0.00362422597, 0.536837995, 0.536837995,
          0.0150093036, 0.0170926154, 0.429739505, 0.463035077,
          0.334688723, 0.0492058881, 0.065973416, 0.463035077,
          0.463035077, 0.129629955, 0.178606257, 0.38460356, 0.38460356,
          0.352566093, 0.170002833, 0.284237951, 0.364908844,
          0.193195745, 0.38460356, 0.38460356, 0.0696984082, 0.447276622,
          0.511069179, 0.0394795388, 0.0616686381, 0.511069179,
          0.511069179, 0.0197077524, 0.0256219655, 0.197416484,
          0.49832353, 0.49832353, 0.229053274, 0.0866755247, 0.399881124,
          0.474086881, 0.107414439, 0.0567275025, 0.312288851,
          0.365911335, 0.450990975, 0.286134511, 0.143803537,
          0.201645479, 0.450990975, 0.411070079, 0.212372556,
          0.239338458, 0.464758635, 0.464758635, 0.0990923494,
          0.248230413, 0.464758635, 0.464758635, 0., 0.0513310954,
          0.467977256, 0.467977256, 0.467977256, 0.125869021,
          0.0492714979, 0.0447479337, 0.208839074, 0.235431701,
          0.467977256, 0.547922313, 0.547922313, 0.215780765,
          0.134252205, 0.0769093111, 0.0387012102, 0.119728871,
          0.086827293, 0.547922313, 0.154464737, 0.218782127,
          0.147115663, 0.131235689, 0.529098213, 0.529098213,
          0.529098213, 0.177834705, 0.112539791, 0.102312483,
          0.427166939, 0.209922522, 0.427166939, 0.427166939,
          0.427166939, 0.342241108, 0.235464409, 0.196821347,
          0.0771051794, 0.305767179, 0.483986944, 0.590034068,
          0.493738264, 0.0554227829, 0.0850741789, 0.213797927,
          0.111757793, 0.35942027, 0.330422699, 0.103110671, 0.178769797,
          0.36169222, 0.399797112, 0.399797112, 0.369950593, 0.357342064,
          0.343414873, 0.373938948, 0.277050525, 0.254172087,
          0.373938948, 0.373938948, 0.373938948, 0.246711299,
          0.341733992, 0.370660543, 0.370660543, 0.329612672,
          0.370660543, 0.333224803, 0.323899388, 0.370660543,
          0.267120987, 0.225370795, 0.38460356, 0.38460356, 0.352566093,
          0.170002833, 0.284237951, 0.364908844, 0.193195745, 0.38460356,
          0.38460356, 0.376568824, 0.376568824, 0.376568824, 0.229192466,
          0.236439735, 0.192302898, 0.376568824, 0.376568824,
          0.376568824, 0.4060193, 0.4060193, 0.4060193, 0.17237325,
          0.0515266843, 0.0560243167, 0.4060193, 0.4060193, 0.369024724,
          0.38460356, 0.38460356, 0.352566093, 0.170002833, 0.284237951,
          0.364908844, 0.193195745, 0.38460356, 0.38460356, 0.376568824,
          0.376568824, 0.376568824, 0.229192466, 0.236439735,
          0.192302898, 0.376568824, 0.376568824, 0.376568824, 0.4060193,
          0.4060193, 0.4060193, 0.17237325, 0.0515266843, 0.0560243167,
          0.4060193, 0.4060193, 0.369024724, 0.312288851, 0.365911335,
          0.450990975, 0.286134511, 0.143803537, 0.201645479,
          0.450990975, 0.411070079, 0.212372556, 0.0704939961,
          0.253332645, 0.498591006, 0.186824352, 0.168001369,
          0.137271494, 0.498591006, 0.498591006, 0.313246518, 0.11206039,
          0.282855749, 0.46035251, 0.46035251, 0.0987548828, 0.248012543,
          0.46035251, 0.422957778, 0.130028784, 0.547922313, 0.547922313,
          0.215780765, 0.134252205, 0.0769093111, 0.0387012102,
          0.119728871, 0.086827293, 0.547922313, 0.626225173,
          0.192003012, 0.233698115, 0.0531453677, 0.0950612128,
          0.038184084, 0.19301714, 0.259571135, 0.626225173, 0.499231786,
          0.499231786, 0.169455931, 0.0801626816, 0.0618453734,
          0.0836981609, 0.254889011, 0.369292319, 0.499231786 ]
      - [ 0.0618031994, 0.428414971, 0.428414971, 0.251562685,
          0.249072298, 0.428414971, 0.428414971, 0.362930179,
          0.0265350211, 0.456389338, 0.456389338, 0.456389338,
          0.0302000027, 0.00882065296, 0.0622272156, 0.195077807,
          0.345483929, 0.456389338, 0.393132001, 0.226019517,
          0.263753176, 0.393132001, 0.269807458, 0.172806874,
          0.393132001, 0.393132001, 0.393132001, 0.425301224,
          0.510001123, 0.510001123, 0.100703776, 0.0859393477,
          0.295239747, 0.263826877, 0.320249319, 0.130252466,
          0.0820074081, 0.499206513, 0.499206513, 0.24336578,
          0.0535302833, 0.0528520606, 0.499206513, 0.41457662,
          0.0625134632, 0.39376089, 0.24486509, 0.39376089, 0.361223549,
          0.137009203, 0.107773341, 0.39376089, 0.39376089, 0.39376089,
          0.383651704, 0.483120114, 0.483120114, 0.483120114,
          0.0714658946, 0.159191191, 0.149228618, 0.271513045,
          0.146059096, 0.33306101, 0.438464135, 0.438464135, 0.438464135,
          0.131149322, 0.228036076, 0.144693762, 0.206167296,
          0.418684095, 0.374004453, 0.313307554, 0.374004453,
          0.366620779, 0.168343902, 0.261865705, 0.327506483,
          0.374004453, 0.374004453, 0.383651704, 0.483120114,
          0.483120114, 0.483120114, 0.0714658946, 0.159191191,
          0.149228618, 0.271513045, 0.146059096, 0.33306101, 0.438464135,
          0.438464135, 0.438464135, 0.131149322, 0.228036076,
          0.144693762, 0.206167296, 0.418684095, 0.374004453,
          0.313307554, 0.374004453, 0.366620779, 0.168343902,
          0.261865705, 0.327506483, 0.374004453, 0.374004453,
          0.479308426, 0.216616258, 0.479308426, 0.479308426,
          0.140164495, 0.0967258364, 0.0184092578, 0.00168804126,
          0.479308426, 0.31447354, 0.136600271, 0.412083715, 0.412083715,
          0.412083715, 0.412083715, 0.109427519, 0.131494612,
          0.412083715, 0.0195399839, 0.0193473585, 0.341858387,
          0.528227866, 0.528227866, 0.528227866, 0.115009062,
          0.0860352591, 0.13927801, 0.675559282, 0.15703088,
          0.0478175171, 0.0423097797, 0.22459279, 0.0124372225,
          0.00104040152, 0.0340892076, 0.675559282, 0.563132703,
          0.0442038812, 0.0473050438, 0.0948695093, 0.0571018308,
          0.0655099377, 0.0430197455, 0.572090089, 0.572090089,
          0.532230854, 0.00139096833, 0.0590741299, 0.208035275,
          0.236271948, 0.195954487, 0.0623122677, 0.532230854,
          0.532230854, 0.393132001, 0.226019517, 0.263753176,
          0.393132001, 0.269807458, 0.172806874, 0.393132001,
          0.393132001, 0.393132001, 0.282994211, 0.463066906,
          0.463066906, 0.123662978, 0.0160688013, 0.00431051571,
          0.463066906, 0.463066906, 0.204928726, 0.174074158,
          0.450619519, 0.450619519, 0.00168615475, 0., 0., 0.450619519,
          0.450619519, 0.391104162, 0.39376089, 0.24486509, 0.39376089,
          0.361223549, 0.137009203, 0.107773341, 0.39376089, 0.39376089,
          0.39376089, 0.334124744, 0.456708819, 0.456708819, 0.192263499,
          0.0117096398, 0.0258739479, 0.456708819, 0.456708819,
          0.108144365, 0.0481228493, 0.497511148, 0.497511148,
          0.00809969753, 0., 0., 0.497511148, 0.497511148, 0.0507973023,
          0.374004453, 0.313307554, 0.374004453, 0.366620779,
          0.168343902, 0.261865705, 0.327506483, 0.374004453,
          0.374004453, 0.427168459, 0.427168459, 0.4175888, 0.0160244144,
          0.0333477966, 0.202265412, 0.427168459, 0.427168459,
          0.221766979, 0.098050274, 0.496001959, 0.496001959, 0.,
          0.00110166101, 0.0160964783, 0.496001959, 0.496001959,
          0.0331689194, 0.374004453, 0.313307554, 0.374004453,
          0.366620779, 0.168343902, 0.261865705, 0.327506483,
          0.374004453, 0.374004453, 0.427168459, 0.427168459, 0.4175888,
          0.0160244144, 0.0333477966, 0.202265412, 0.427168459,
          0.427168459, 0.221766979, 0.098050274, 0.496001959,
          0.496001959, 0., 0.00110166101, 0.0160964783, 0.496001959,
          0.496001959, 0.0331689194, 0.0195399839, 0.0193473585,
          0.341858387, 0.528227866, 0.528227866, 0.528227866,
          0.115009062, 0.0860352591, 0.13927801, 0.0270886924,
          0.43912378, 0.43912378, 0.43912378, 0.43912378, 0.43912378,
          0.168402642, 0.0439691655, 0.0209440514, 0.00237971661,
          0.297122866, 0.277119219, 0.221075952, 0.501483619,
          0.501483619, 0.501483619, 0.163013801, 0.00182620296,
          0.532230854, 0.00139096833, 0.0590741299, 0.208035275,
          0.236271948, 0.195954487, 0.0623122677, 0.532230854,
          0.532230854, 0.444589674, 0.0591169409, 0.423512965,
          0.444589674, 0.43996346, 0.147720337, 0.0228845906,
          0.0617104471, 0.444589674, 0.435085773, 0.00455037132,
          0.0214072801, 0.158519149, 0.435085773, 0.435085773,
          0.406471193, 0.218240902, 0.435085773 ]
      - [ 0.453471005, 0.453471005, 0.43943879, 0.00843634829,
          0.105078548, 0.453471005, 0.361057013, 0.144315884,
          0.152165011, 0.4019835, 0.4019835, 0.158461586, 0.00151643204,
          0.0364316218, 0.4019835, 0.4019835, 0.4019835, 0.4019835,
          0.384799212, 0.384799212, 0.384799212, 0.384799212,
          0.304251164, 0.00780969393, 0.122896127, 0.384799212,
          0.384799212, 0.0603843518, 0.410808802, 0.410808802,
          0.410808802, 0.0680271909, 0.237324521, 0.410808802,
          0.410808802, 0.295770288, 0.359272391, 0.359272391,
          0.359272391, 0.134046271, 0.329093784, 0.359272391,
          0.309321254, 0.359272391, 0.359272391, 0.37540707, 0.37540707,
          0.306586444, 0.324672252, 0.37540707, 0.215111509, 0.214281976,
          0.37540707, 0.37540707, 0.316795409, 0.279784322, 0.512246072,
          0.512246072, 0.512246072, 0.0404491201, 0.0293129049,
          0.0821285397, 0.140773013, 0.46361056, 0.205173939,
          0.0406438671, 0.359603673, 0.46361056, 0.46361056,
          0.00911193248, 0.0401544943, 0.419292927, 0.445316136,
          0.0346211381, 0.0169519223, 0.445316136, 0.445316136,
          0.445316136, 0.0227438025, 0.0449026227, 0.445316136,
          0.316795409, 0.279784322, 0.512246072, 0.512246072,
          0.512246072, 0.0404491201, 0.0293129049, 0.0821285397,
          0.140773013, 0.46361056, 0.205173939, 0.0406438671,
          0.359603673, 0.46361056, 0.46361056, 0.00911193248,
          0.0401544943, 0.419292927, 0.445316136, 0.0346211381,
          0.0169519223, 0.445316136, 0.445316136, 0.445316136,
          0.0227438025, 0.0449026227, 0.445316136, 0.547132909,
          0.547132909, 0.547132909, 0.0268218964, 0.0488721356,
          0.208239377, 0.209363595, 0.076824747, 0.0163126234,
          0.476968139, 0.476968139, 0.0294585694, 0.00713336794,
          0.476968139, 0.476968139, 0.244606584, 0.0963138938,
          0.123345591, 0.480611771, 0.0243808795, 0.0244271606,
          0.360587537, 0.480611771, 0.480611771, 0.00449752342,
          0.00926182419, 0.41342032, 0.083294116, 0.445858955,
          0.445858955, 0.445858955, 0.0524869859, 0.0744391605,
          0.294043243, 0.3784495, 0.392754674, 0.308778137, 0.0783416852,
          0.145508915, 0.39799428, 0.360079288, 0.358123869, 0.374515414,
          0.39799428, 0.39799428, 0.54856807, 0.175157785, 0.0157421883,
          0.0594663844, 0.54856807, 0.237455532, 0.00283908541,
          0.0297251884, 0.54856807, 0.384799212, 0.384799212,
          0.384799212, 0.384799212, 0.304251164, 0.00780969393,
          0.122896127, 0.384799212, 0.384799212, 0.151865482,
          0.250858784, 0.410571247, 0.410571247, 0.258416981,
          0.0168009661, 0.410571247, 0.410571247, 0.410571247,
          0.108238891, 0.0792128816, 0.293939561, 0.456399828, 0.2399569,
          0.0163652785, 0.456399828, 0.456399828, 0.456399828,
          0.37540707, 0.37540707, 0.306586444, 0.324672252, 0.37540707,
          0.215111509, 0.214281976, 0.37540707, 0.37540707, 0.398403704,
          0.398403704, 0.398403704, 0.12330313, 0.254296988, 0.398403704,
          0.398403704, 0.298979402, 0.182024434, 0.0745830908,
          0.120652713, 0.190606862, 0.184999138, 0.0375851169,
          0.547583878, 0.547583878, 0.547583878, 0.0538474582,
          0.445316136, 0.0346211381, 0.0169519223, 0.445316136,
          0.445316136, 0.445316136, 0.0227438025, 0.0449026227,
          0.445316136, 0.420332879, 0.0396456867, 0.00586566096,
          0.0453781411, 0.461012602, 0.461012602, 0.141068891,
          0.396927744, 0.461012602, 0.404524237, 0.133534014,
          0.0408953167, 0.0309419725, 0.0912284106, 0.448079407,
          0.448079407, 0.448079407, 0.448079407, 0.445316136,
          0.0346211381, 0.0169519223, 0.445316136, 0.445316136,
          0.445316136, 0.0227438025, 0.0449026227, 0.445316136,
          0.420332879, 0.0396456867, 0.00586566096, 0.0453781411,
          0.461012602, 0.461012602, 0.141068891, 0.396927744,
          0.461012602, 0.404524237, 0.133534014, 0.0408953167,
          0.0309419725, 0.0912284106, 0.448079407, 0.448079407,
          0.448079407, 0.448079407, 0.480611771, 0.0243808795,
          0.0244271606, 0.360587537, 0.480611771, 0.480611771,
          0.00449752342, 0.00926182419, 0.41342032, 0.151414365,
          0.318038791, 0.408316046, 0.408316046, 0.408316046,
          0.0278034471, 0.193553582, 0.408316046, 0.408316046,
          0.13859798, 0.296917468, 0.17050305, 0.0481402278, 0.,
          0.0691882148, 0.53264606, 0.53264606, 0.53264606, 0.54856807,
          0.175157785, 0.0157421883, 0.0594663844, 0.54856807,
          0.237455532, 0.00283908541, 0.0297251884, 0.54856807,
          0.445961446, 0.445961446, 0.379199266, 0.126524523,
          0.260908157, 0.445961446, 0.396849245, 0.0828673616,
          0.0816744566, 0.461041689, 0.461041689, 0.0902793854,
          0.015506004, 0.0108878957, 0.461041689, 0.461041689,
          0.365198433, 0.0572537594 ]
      - [ 0.37408486, 0.156514525, 0.37408486, 0.37408486, 0.37408486,
          0.37408486, 0.37408486, 0.0808013156, 0.354401171, 0.481416762,
          0.225428522, 0.481416762, 0.424698025, 0.245198354,
          0.0845426247, 0.0379813798, 0.00255758944, 0.481416762,
          0.685037792, 0.00612068828, 0.0141065083, 0.0593833663,
          0.0593459867, 0.00830127392, 0.00870357268, 0.0652501732,
          0.71546787, 0.301019251, 0.367881864, 0.367881864, 0.313166022,
          0.28760612, 0.367881864, 0.367881864, 0.367881864, 0.219627783,
          0.154831022, 0.548955262, 0.548955262, 0.548955262,
          0.189218119, 0.050108593, 0.0670553148, 0.0900421515,
          0.124785006, 0.273465753, 0.13311404, 0.205504, 0.471043885,
          0.468345255, 0.0881068408, 0.135234669, 0.414001405,
          0.471043885, 0.080962047, 0.241127744, 0.434572846,
          0.334243745, 0.0444866158, 0.248695612, 0.434572846,
          0.434572846, 0.434572846, 0.224792957, 0.192790002,
          0.447577953, 0.501393974, 0.391218483, 0.195829675,
          0.295491606, 0.0772423595, 0.41338563, 0.0807094648,
          0.0142961936, 0.0494022779, 0.671661079, 0.671661079,
          0.050426539, 0.0353036188, 0.0809923634, 0.267450124,
          0.080962047, 0.241127744, 0.434572846, 0.334243745,
          0.0444866158, 0.248695612, 0.434572846, 0.434572846,
          0.434572846, 0.224792957, 0.192790002, 0.447577953,
          0.501393974, 0.391218483, 0.195829675, 0.295491606,
          0.0772423595, 0.41338563, 0.0807094648, 0.0142961936,
          0.0494022779, 0.671661079, 0.671661079, 0.050426539,
          0.0353036188, 0.0809923634, 0.267450124, 0.428733557,
          0.0652946681, 0.143150568, 0.178919032, 0.0805075243,
          0.00894475169, 0.222008035, 0.590624034, 0.590624034,
          0.635049641, 0.034475591, 0.0742631704, 0.30842647,
          0.249929383, 0.127525464, 0.0736664087, 0.0331503563,
          0.635049641, 0.453183979, 0.0158934891, 0.0309449174,
          0.453183979, 0.453183979, 0.0472037159, 0.0230388027,
          0.41231212, 0.453183979, 0.0517782122, 0.00190322299,
          0.00840109587, 0.694960117, 0.694960117, 0.000626797322,
          0.0102092531, 0.0425607823, 0.149840489, 0.182140201,
          0.000914827106, 0.00111901469, 0.629788101, 0.657191098,
          0.134686098, 0.00280989031, 0.0385938808, 0.334799737,
          0.130674124, 0.0260448474, 0., 0.0570488498, 0.547000587,
          0.547000587, 0.000323580462, 0.275499612, 0.547000587,
          0.685037792, 0.00612068828, 0.0141065083, 0.0593833663,
          0.0593459867, 0.00830127392, 0.00870357268, 0.0652501732,
          0.71546787, 0.337011516, 0.0233400464, 0.021395022,
          0.0288199224, 0.013253469, 0., 0.00131014246, 0.662494838,
          0.662494838, 0.471307307, 0.227455571, 0.235444456,
          0.295816511, 0.184833229, 0., 0.00475590909, 0.521439493,
          0.521439493, 0.273465753, 0.13311404, 0.205504, 0.471043885,
          0.468345255, 0.0881068408, 0.135234669, 0.414001405,
          0.471043885, 0.0409083292, 0.00977723207, 0.0951165631,
          0.405451268, 0.226838648, 0.08786764, 0.0947547331,
          0.612585425, 0.612585425, 0.0116799455, 0.00331035047,
          0.0734270513, 0.110038094, 0.0336109474, 0.00528806634,
          0.175965041, 0.686795175, 0.686795175, 0.0807094648,
          0.0142961936, 0.0494022779, 0.671661079, 0.671661079,
          0.050426539, 0.0353036188, 0.0809923634, 0.267450124,
          0.0393717811, 0.0067386115, 0.0418408178, 0.641242743,
          0.660362244, 0.0987276435, 0.0194495264, 0.0848776028,
          0.354204744, 0.0596126989, 0.0361801051, 0.150055617,
          0.348453343, 0.523375213, 0.140425503, 0.523375213,
          0.523375213, 0.067007944, 0.0807094648, 0.0142961936,
          0.0494022779, 0.671661079, 0.671661079, 0.050426539,
          0.0353036188, 0.0809923634, 0.267450124, 0.0393717811,
          0.0067386115, 0.0418408178, 0.641242743, 0.660362244,
          0.0987276435, 0.0194495264, 0.0848776028, 0.354204744,
          0.0596126989, 0.0361801051, 0.150055617, 0.348453343,
          0.523375213, 0.140425503, 0.523375213, 0.523375213,
          0.067007944, 0.453183979, 0.0158934891, 0.0309449174,
          0.453183979, 0.453183979, 0.0472037159, 0.0230388027,
          0.41231212, 0.453183979, 0.406279653, 0.373986274, 0.138477281,
          0.330824912, 0.42902118, 0.0969086662, 0.0244048294,
          0.42902118, 0.42902118, 0.328429133, 0.38412115, 0.38412115,
          0.38412115, 0.38412115, 0.38412115, 0.38412115, 0.0520047955,
          0.0172595866, 0.130674124, 0.0260448474, 0., 0.0570488498,
          0.547000587, 0.547000587, 0.000323580462, 0.275499612,
          0.547000587, 0.174138337, 0.154598638, 0.0649901256,
          0.0897753313, 0.431088269, 0.431088269, 0.431088269,
          0.431088269, 0.431088269, 0.242800802, 0.459691614,
          0.223469362, 0.17722699, 0.459691614, 0.459691614, 0.459691614,
          0.0863951519, 0.048770301 ]
      - [ 0.565328717, 0.565328717, 0.565328717, 0.0295444261,
          0.0215627253, 0.0432592295, 0.160094857, 0.04878176,
          0.0659233928, 0.680280268, 0.680280268, 0.0397767648,
          0.00911614671, 0.0581885353, 0.202361643, 0.108734593,
          0.0197852999, 0.097109437, 0.475153059, 0.255051196,
          0.0750828981, 0.0761606991, 0.475153059, 0.475153059, 0.115364,
          0.0487279817, 0.475153059, 0.0756115988, 0.699599981,
          0.699599981, 0.058152359, 0.0176309608, 0.0443326123,
          0.0492476188, 0.0171882305, 0.00634101918, 0.379966497,
          0.379966497, 0.36412698, 0.013477006, 0.131043389, 0.379966497,
          0.379966497, 0.352687806, 0.379966497, 0.371076822,
          0.371076822, 0.195459962, 0.205589548, 0.371076822,
          0.371076822, 0.371076822, 0.299387753, 0.371076822,
          0.00573175726, 0.459894568, 0.625094235, 0.625094235,
          0.0126086175, 0.0198519342, 0.0112095037, 0.00633240398,
          0.00430870615, 0.144932568, 0.331692636, 0.429519564,
          0.429519564, 0.218496889, 0.429519564, 0.429519564,
          0.250055373, 0.128324598, 0.389288872, 0.389288872,
          0.188384905, 0.369201273, 0.389288872, 0.389288872,
          0.206172764, 0.155164555, 0.389288872, 0.00573175726,
          0.459894568, 0.625094235, 0.625094235, 0.0126086175,
          0.0198519342, 0.0112095037, 0.00633240398, 0.00430870615,
          0.144932568, 0.331692636, 0.429519564, 0.429519564,
          0.218496889, 0.429519564, 0.429519564, 0.250055373,
          0.128324598, 0.389288872, 0.389288872, 0.188384905,
          0.369201273, 0.389288872, 0.389288872, 0.206172764,
          0.155164555, 0.389288872, 0.0932437405, 0.495973259,
          0.495973259, 0.495973259, 0.495973259, 0.040832445,
          0.0122479536, 0.0131719196, 0.0200854484, 0.0441998579,
          0.0671420246, 0.249964729, 0.524589479, 0.524589479,
          0.114333406, 0.418371648, 0.412990868, 0.129462317,
          0.238834769, 0.218874633, 0.217276454, 0.458772957,
          0.458772957, 0.458772957, 0.194912493, 0.312381983,
          0.276168466, 0.374710321, 0.213935971, 0.315343738,
          0.374710321, 0.374710321, 0.374710321, 0.374710321, 0.23219505,
          0.30837065, 0.163850993, 0.24424614, 0.288669497, 0.526282072,
          0.526282072, 0.32717967, 0.241731226, 0.205945089, 0.251140088,
          0.103083961, 0.420390457, 0.420390457, 0.420390457,
          0.420390457, 0.390136778, 0.328273147, 0.134284958,
          0.0161043797, 0.475153059, 0.255051196, 0.0750828981,
          0.0761606991, 0.475153059, 0.475153059, 0.115364, 0.0487279817,
          0.475153059, 0.352720022, 0.352720022, 0.352720022,
          0.117345855, 0.352720022, 0.352720022, 0.352720022,
          0.334404022, 0.352720022, 0.224752724, 0.265156716,
          0.248585537, 0.0552293919, 0.0278395656, 0.0254318435,
          0.0791127607, 0.632588565, 0.632588565, 0.371076822,
          0.371076822, 0.195459962, 0.205589548, 0.371076822,
          0.371076822, 0.371076822, 0.299387753, 0.371076822,
          0.347416103, 0.347416103, 0.347416103, 0.321090788,
          0.220327005, 0.347416103, 0.347416103, 0.347416103,
          0.347416103, 0.188199297, 0.454854965, 0.460090369,
          0.188180625, 0.0106934458, 0.0128010372, 0.460090369,
          0.460090369, 0.286971897, 0.389288872, 0.389288872,
          0.188384905, 0.369201273, 0.389288872, 0.389288872,
          0.206172764, 0.155164555, 0.389288872, 0.341798156,
          0.341798156, 0.341798156, 0.341798156, 0.341798156,
          0.248951897, 0.341798156, 0.341798156, 0.341798156, 0.16275537,
          0.287157655, 0.489696711, 0.283354759, 0.108791314,
          0.489696711, 0.489696711, 0.270732909, 0.036467243,
          0.389288872, 0.389288872, 0.188384905, 0.369201273,
          0.389288872, 0.389288872, 0.206172764, 0.155164555,
          0.389288872, 0.341798156, 0.341798156, 0.341798156,
          0.341798156, 0.341798156, 0.248951897, 0.341798156,
          0.341798156, 0.341798156, 0.16275537, 0.287157655, 0.489696711,
          0.283354759, 0.108791314, 0.489696711, 0.489696711,
          0.270732909, 0.036467243, 0.238834769, 0.218874633,
          0.217276454, 0.458772957, 0.458772957, 0.458772957,
          0.194912493, 0.312381983, 0.276168466, 0.410139143,
          0.410139143, 0.316034228, 0.190034255, 0.410139143,
          0.410139143, 0.410139143, 0.115922794, 0.0735095963,
          0.0470408872, 0.241342008, 0.209775642, 0.030999925,
          0.629000247, 0.629000247, 0.311462283, 0.0015611581,
          0.000741272233, 0.103083961, 0.420390457, 0.420390457,
          0.420390457, 0.420390457, 0.390136778, 0.328273147,
          0.134284958, 0.0161043797, 0.0778286383, 0.142360508,
          0.00885801297, 0.137950554, 0.643574119, 0.643574119,
          0.344810396, 0.0295123085, 0.00122234761, 0.00452032546,
          0.0878207237, 0.494704723, 0.233690426, 0.586070359,
          0.586070359, 0.010678594, 0.000306751637, 0. ]
      - [ 0.591694713, 0.591694713, 0.329745263, 0.0963526443,
          0.0159455538, 0.0231168494, 0.0563053787, 0.14971225,
          0.386649936, 0.377547592, 0.377547592, 0.377547592,
          0.377547592, 0.222776636, 0.377547592, 0.370529652,
          0.188823313, 0.246862739, 0.398344547, 0.398344547,
          0.398344547, 0.389416128, 0.299049139, 0.255719006,
          0.229564875, 0.0462549441, 0.398344547, 0.302691817,
          0.595603883, 0.595603883, 0.0351495594, 0.0111457976,
          0.00409466214, 0.020768119, 0.244303823, 0.362561107,
          0.0884021595, 0.38094911, 0.373683274, 0.220873162,
          0.148986921, 0.358721912, 0.409742564, 0.409742564,
          0.409742564, 0.0505732968, 0.512328625, 0.512328625,
          0.512328625, 0.0780799761, 0.156988591, 0.31379959,
          0.266794026, 0.0670271888, 0.0225153267, 0.660621703,
          0.660621703, 0.327841818, 0.02222085, 0.017459752, 0.0926973,
          0.0548900254, 0.013084908, 0.0702306405, 0.101562873,
          0.417650282, 0.108118385, 0.016137382, 0.170573935,
          0.571813524, 0.571813524, 0.331095576, 0.295930684,
          0.228902251, 0.382062107, 0.382062107, 0.262619764, 0.26009509,
          0.382062107, 0.368385017, 0.382062107, 0.0225153267,
          0.660621703, 0.660621703, 0.327841818, 0.02222085, 0.017459752,
          0.0926973, 0.0548900254, 0.013084908, 0.0702306405,
          0.101562873, 0.417650282, 0.108118385, 0.016137382,
          0.170573935, 0.571813524, 0.571813524, 0.331095576,
          0.295930684, 0.228902251, 0.382062107, 0.382062107,
          0.262619764, 0.26009509, 0.382062107, 0.368385017, 0.382062107,
          0.0106811002, 0.0316441506, 0.703855693, 0.703855693,
          0.0159743931, 0.000914751086, 0.00946830213, 0.0191927049,
          0.0178575162, 0.124307171, 0.0416702814, 0.411670774,
          0.464733213, 0.106279753, 0.0081532225, 0.386527985,
          0.464733213, 0.464733213, 0.612455249, 0.0676409304,
          0.0906286836, 0.243892148, 0.272826672, 0.0756307989,
          0.0606654696, 0.295930922, 0.612455249, 0.00694332831,
          0.0354167558, 0.636461675, 0.636461675, 0.418520004,
          0.0330622233, 0.0640609488, 0.0418145321, 0.00847381726,
          0.00569706038, 0.00407641614, 0.133624226, 0.698039174,
          0.698039174, 0.00406153873, 0.0143008977, 0.00767180836,
          0.0181691516, 0.0622223988, 0.0103847235, 0.00368093839,
          0.685648143, 0.685648143, 0.180983499, 0.0117794424,
          0.0121575445, 0.126070991, 0.398344547, 0.398344547,
          0.398344547, 0.389416128, 0.299049139, 0.255719006,
          0.229564875, 0.0462549441, 0.398344547, 0.368482292,
          0.0272893645, 0.053089384, 0.0609228276, 0.0181183256,
          0.00585365854, 0.0268249307, 0.59500742, 0.703426123,
          0.268144399, 0.128050819, 0.0803966299, 0.068855457,
          0.0507138297, 0.0120239817, 0.0131523302, 0.667437017,
          0.667437017, 0.0505732968, 0.512328625, 0.512328625,
          0.512328625, 0.0780799761, 0.156988591, 0.31379959,
          0.266794026, 0.0670271888, 0.114571728, 0.0982031897,
          0.432116836, 0.432116836, 0.352291256, 0.12237639, 0.294835478,
          0.432116836, 0.432116836, 0.010646564, 0.0158757139,
          0.0465499461, 0.0994398445, 0.054426413, 0.0405202582,
          0.436602473, 0.626934648, 0.626934648, 0.295930684,
          0.228902251, 0.382062107, 0.382062107, 0.262619764, 0.26009509,
          0.382062107, 0.368385017, 0.382062107, 0.135009483,
          0.0464273617, 0.219475538, 0.646451473, 0.646451473,
          0.0932253003, 0.0617537946, 0.154505104, 0.229821846,
          0.0217340589, 0.130563483, 0.218679175, 0.476529211,
          0.476529211, 0.139857635, 0.476529211, 0.476529211,
          0.044944901, 0.295930684, 0.228902251, 0.382062107,
          0.382062107, 0.262619764, 0.26009509, 0.382062107, 0.368385017,
          0.382062107, 0.135009483, 0.0464273617, 0.219475538,
          0.646451473, 0.646451473, 0.0932253003, 0.0617537946,
          0.154505104, 0.229821846, 0.0217340589, 0.130563483,
          0.218679175, 0.476529211, 0.476529211, 0.139857635,
          0.476529211, 0.476529211, 0.044944901, 0.612455249,
          0.0676409304, 0.0906286836, 0.243892148, 0.272826672,
          0.0756307989, 0.0606654696, 0.295930922, 0.612455249,
          0.410459042, 0.179430217, 0.0372258089, 0.442051023,
          0.442051023, 0.0879708454, 0.0644324347, 0.442051023,
          0.442051023, 0.291856587, 0.360691667, 0.360691667,
          0.360691667, 0.360691667, 0.360691667, 0.360691667,
          0.291458517, 0.213722289, 0.0622223988, 0.0103847235,
          0.00368093839, 0.685648143, 0.685648143, 0.180983499,
          0.0117794424, 0.0121575445, 0.126070991, 0.0297937244,
          0.0255962722, 0.011592539, 0.144120499, 0.514643967,
          0.514643967, 0.308417916, 0.479704112, 0.342721164,
          0.0642940179, 0.23108615, 0.209621727, 0.204524145,
          0.451941103, 0.451941103, 0.451941103, 0.451941103,
          0.187554732 ]
      - [ 0.0232240744, 0.221397609, 0.31321609, 0.418958306,
          0.388170213, 0.494583905, 0.494583905, 0.178210676,
          0.0145647246, 0.103045575, 0.350082427, 0.524436951,
          0.165819034, 0.524436951, 0.524436951, 0.084227778,
          0.0380708054, 0.021080628, 0.367792815, 0.367792815,
          0.367792815, 0.117844403, 0.367792815, 0.188513562,
          0.367792815, 0.367792815, 0.367792815, 0.0637498945,
          0.195998013, 0.307727545, 0.0332631469, 0.190285891,
          0.63484484, 0.63484484, 0.103344254, 0.0493460223, 0.159939781,
          0.593829751, 0.593829751, 0.0670283735, 0.192017332,
          0.413267314, 0.146236658, 0.142114282, 0.0974032432,
          0.0227664337, 0.522992074, 0.522992074, 0.00630468968,
          0.0114562819, 0.0235578325, 0.522992074, 0.41550979,
          0.0179494265, 0.19588694, 0.453746885, 0.286270946,
          0.0916880518, 0.124494791, 0.453746885, 0.453746885,
          0.453746885, 0.166416049, 0.426341802, 0.445700884,
          0.445700884, 0.041635219, 0.108944476, 0.0496672094,
          0.0558063462, 0.445700884, 0.445700884, 0.0308226384,
          0.448332191, 0.518060684, 0.00289654103, 0.0215025451,
          0.00476319622, 0.518060684, 0.49417147, 0.106777899,
          0.19588694, 0.453746885, 0.286270946, 0.0916880518,
          0.124494791, 0.453746885, 0.453746885, 0.453746885,
          0.166416049, 0.426341802, 0.445700884, 0.445700884,
          0.041635219, 0.108944476, 0.0496672094, 0.0558063462,
          0.445700884, 0.445700884, 0.0308226384, 0.448332191,
          0.518060684, 0.00289654103, 0.0215025451, 0.00476319622,
          0.518060684, 0.49417147, 0.106777899, 0.0378743969,
          0.148360178, 0.501838863, 0.161993504, 0.0693748146,
          0.127796188, 0.547927797, 0.547927797, 0.267216295,
          0.145765617, 0.462052554, 0.462052554, 0.343377471,
          0.00766812963, 0.010528909, 0.0457068384, 0.462052554,
          0.462052554, 0.407335728, 0.407335728, 0.407335728, 0.14079392,
          0.019336218, 0.056073837, 0.378124028, 0.407335728,
          0.407335728, 0.0287105665, 0.0582149625, 0.147979975,
          0.0117829805, 0.0128956027, 0.021228116, 0.107448377,
          0.690901875, 0.690901875, 0.0832420141, 0.101359718,
          0.492392689, 0.492392689, 0.0804186687, 0.0261339601,
          0.037585713, 0.491898954, 0.492392689, 0.169430315,
          0.0315563791, 0.205986291, 0.637337744, 0.323908806,
          0.548422933, 0.111172087, 0.082700789, 0.300701648,
          0.367792815, 0.367792815, 0.367792815, 0.117844403,
          0.367792815, 0.188513562, 0.367792815, 0.367792815,
          0.367792815, 0.175693154, 0.0505566522, 0.0457208455,
          0.453228772, 0.453228772, 0.166784912, 0.453228772,
          0.453228772, 0.332379192, 0.211016893, 0.0148477759,
          0.144674346, 0.65884155, 0.65884155, 0.0283510052,
          0.0756665394, 0.055174455, 0.223663345, 0.0227664337,
          0.522992074, 0.522992074, 0.00630468968, 0.0114562819,
          0.0235578325, 0.522992074, 0.41550979, 0.0179494265,
          0.0165888555, 0.037073601, 0.0920726135, 0.0598743595,
          0.066435881, 0.0381708257, 0.697441399, 0.697441399,
          0.0246190578, 0.0826585069, 0.0341808796, 0.616936266,
          0.616936266, 0.259887874, 0.0664838925, 0.121705145,
          0.337126285, 0.155533224, 0.0308226384, 0.448332191,
          0.518060684, 0.00289654103, 0.0215025451, 0.00476319622,
          0.518060684, 0.49417147, 0.106777899, 0.481252879, 0.419155419,
          0.0722035989, 0.00504911784, 0.00412764587, 0.0483098626,
          0.513989925, 0.513989925, 0.227178425, 0.451092064,
          0.319175333, 0.12181519, 0.0757005215, 0.0647490844,
          0.234356895, 0.451092064, 0.451092064, 0.451092064,
          0.0308226384, 0.448332191, 0.518060684, 0.00289654103,
          0.0215025451, 0.00476319622, 0.518060684, 0.49417147,
          0.106777899, 0.481252879, 0.419155419, 0.0722035989,
          0.00504911784, 0.00412764587, 0.0483098626, 0.513989925,
          0.513989925, 0.227178425, 0.451092064, 0.319175333, 0.12181519,
          0.0757005215, 0.0647490844, 0.234356895, 0.451092064,
          0.451092064, 0.451092064, 0.407335728, 0.407335728,
          0.407335728, 0.14079392, 0.019336218, 0.056073837, 0.378124028,
          0.407335728, 0.407335728, 0.410356015, 0.410356015,
          0.0343720615, 0.00410364568, 0.0117760571, 0.390644878,
          0.410356015, 0.410356015, 0.410356015, 0.220402211,
          0.326721579, 0.0246756431, 0.0114771938, 0.0114918314,
          0.426525414, 0.564760327, 0.564760327, 0.135392934,
          0.169430315, 0.0315563791, 0.205986291, 0.637337744,
          0.323908806, 0.548422933, 0.111172087, 0.082700789,
          0.300701648, 0.439714551, 0.0661935285, 0.0261528231,
          0.109404005, 0.0811383352, 0.663023651, 0.568582833,
          0.039195925, 0.109501146, 0.490920544, 0.490920544,
          0.0508016646, 0.0283438154, 0.0812140107, 0.490920544,
          0.490920544, 0.124864593, 0.0742557347 ]
      - [ 0.243686557, 0.0596877113, 0.199868575, 0.300493032,
          0.400701284, 0.400701284, 0.400701284, 0.400701284,
          0.400701284, 0.398440033, 0.0802104026, 0.14822422,
          0.398440033, 0.398440033, 0.398440033, 0.152879387,
          0.387906045, 0.398440033, 0.400897801, 0.241955027,
          0.184390008, 0.400897801, 0.400897801, 0.389874876,
          0.226934195, 0.238904834, 0.400897801, 0.349891037,
          0.0805454925, 0.358053565, 0.358053565, 0.358053565,
          0.31352374, 0.358053565, 0.358053565, 0.358053565, 0.437686265,
          0.118393637, 0.355903298, 0.137885228, 0.437686265,
          0.437686265, 0.164201349, 0.206621006, 0.437686265,
          0.491900355, 0.0469600298, 0.00282211136, 0.363663226,
          0.491900355, 0.364293635, 0.0218685418, 0.0392032228,
          0.491900355, 0.370626211, 0.133505255, 0.130103812,
          0.370626211, 0.370626211, 0.370626211, 0.370626211,
          0.370626211, 0.370626211, 0.471554846, 0.0809443668,
          0.0537396818, 0.39244765, 0.471554846, 0.379734993,
          0.0301009472, 0.140136302, 0.471554846, 0.525524199,
          0.0577125922, 0.00188057672, 0.206352413, 0.525524199,
          0.328718364, 0.0304873865, 0.106413744, 0.525524199,
          0.370626211, 0.133505255, 0.130103812, 0.370626211,
          0.370626211, 0.370626211, 0.370626211, 0.370626211,
          0.370626211, 0.471554846, 0.0809443668, 0.0537396818,
          0.39244765, 0.471554846, 0.379734993, 0.0301009472,
          0.140136302, 0.471554846, 0.525524199, 0.0577125922,
          0.00188057672, 0.206352413, 0.525524199, 0.328718364,
          0.0304873865, 0.106413744, 0.525524199, 0.356440425,
          0.256450802, 0.203281343, 0.356440425, 0.356440425,
          0.356440425, 0.356440425, 0.356440425, 0.356440425,
          0.340669453, 0.101521224, 0.35256514, 0.35256514, 0.35256514,
          0.35256514, 0.35256514, 0.35256514, 0.35256514, 0.397431761,
          0.146129772, 0.130799264, 0.397431761, 0.397431761,
          0.397431761, 0.0992744341, 0.397431761, 0.397431761,
          0.277677119, 0.104023129, 0.291060358, 0.382284999,
          0.372836143, 0.316172719, 0.382284999, 0.382284999,
          0.382284999, 0.365480274, 0.335213244, 0.167110816,
          0.288118541, 0.365480274, 0.365480274, 0.324288905,
          0.365480274, 0.365480274, 0.370985538, 0.370985538,
          0.139520481, 0.36003235, 0.370985538, 0.370985538, 0.146364957,
          0.370985538, 0.370985538, 0.400897801, 0.241955027,
          0.184390008, 0.400897801, 0.400897801, 0.389874876,
          0.226934195, 0.238904834, 0.400897801, 0.334238857, 0.32083559,
          0.334238857, 0.334238857, 0.334238857, 0.334238857,
          0.334238857, 0.334238857, 0.334238857, 0.426255316,
          0.426255316, 0.426255316, 0.426255316, 0.118578181,
          0.106446616, 0.212687775, 0.331469089, 0.29743585, 0.491900355,
          0.0469600298, 0.00282211136, 0.363663226, 0.491900355,
          0.364293635, 0.0218685418, 0.0392032228, 0.491900355,
          0.413532943, 0.413532943, 0.320419222, 0.413532943,
          0.413532943, 0.189678729, 0.0202638563, 0.042006094,
          0.413532943, 0.358215839, 0.400550753, 0.400550753,
          0.388889641, 0.201443329, 0.0887120962, 0.400550753,
          0.39763996, 0.168982983, 0.525524199, 0.0577125922,
          0.00188057672, 0.206352413, 0.525524199, 0.328718364,
          0.0304873865, 0.106413744, 0.525524199, 0.41806826,
          0.383905441, 0.302019536, 0.41806826, 0.41806826, 0.227170825,
          0.0311327539, 0.0743260086, 0.41806826, 0.308304012,
          0.397426933, 0.397426933, 0.397426933, 0.397426933,
          0.0880251378, 0.397426933, 0.264387429, 0.183271661,
          0.525524199, 0.0577125922, 0.00188057672, 0.206352413,
          0.525524199, 0.328718364, 0.0304873865, 0.106413744,
          0.525524199, 0.41806826, 0.383905441, 0.302019536, 0.41806826,
          0.41806826, 0.227170825, 0.0311327539, 0.0743260086,
          0.41806826, 0.308304012, 0.397426933, 0.397426933, 0.397426933,
          0.397426933, 0.0880251378, 0.397426933, 0.264387429,
          0.183271661, 0.397431761, 0.146129772, 0.130799264,
          0.397431761, 0.397431761, 0.397431761, 0.0992744341,
          0.397431761, 0.397431761, 0.353998959, 0.353998959,
          0.353998959, 0.353998959, 0.353998959, 0.353998959,
          0.168349087, 0.301520824, 0.353998959, 0.224574506,
          0.477142334, 0.477142334, 0.446658969, 0.0893445536,
          0.192504987, 0.372656822, 0.273905635, 0.176149651,
          0.370985538, 0.370985538, 0.139520481, 0.36003235, 0.370985538,
          0.370985538, 0.146364957, 0.370985538, 0.370985538,
          0.412501067, 0.412501067, 0.231375098, 0.162657335,
          0.412501067, 0.412501067, 0.104376793, 0.232824832,
          0.412501067, 0.422525883, 0.422525883, 0.422525883,
          0.103845038, 0.422525883, 0.422525883, 0.235912427,
          0.0652342588, 0.180123881 ]
      - [ 0.120744362, 0.305692554, 0.492220402, 0.492220402,
          0.123522326, 0.131009862, 0.492220402, 0.307276785,
          0.182684332, 0.222904578, 0.212143838, 0.441180557,
          0.441180557, 0.292862564, 0.0488899425, 0.242744803,
          0.441180557, 0.412185699, 0.344482124, 0.344482124,
          0.344482124, 0.344482124, 0.344482124, 0.344482124,
          0.217289448, 0.344482124, 0.344482124, 0.190896124,
          0.256685197, 0.375064045, 0.172104493, 0.14162311,
          0.0123627707, 0.569703996, 0.569703996, 0.228810385,
          0.458290815, 0.458290815, 0.308061153, 0.458290815,
          0.458290815, 0.0878633782, 0.00734960474, 0.00693388097,
          0.229296356, 0.442492932, 0.117520303, 0.0388915427,
          0.442492932, 0.442492932, 0.442492932, 0.0165133737,
          0.0313660242, 0.442492932, 0.221291438, 0.404614508,
          0.404614508, 0.202215299, 0.289341241, 0.0617599599,
          0.404614508, 0.404614508, 0.404614508, 0.46640268, 0.46640268,
          0.46640268, 0.0158145726, 0.140745744, 0.46640268, 0.319886893,
          0.0322968662, 0.0422549993, 0.46977827, 0.156618655,
          0.00454754382, 0.311338693, 0.46977827, 0.46977827,
          0.0868821442, 0.021389436, 0.451381385, 0.221291438,
          0.404614508, 0.404614508, 0.202215299, 0.289341241,
          0.0617599599, 0.404614508, 0.404614508, 0.404614508,
          0.46640268, 0.46640268, 0.46640268, 0.0158145726, 0.140745744,
          0.46640268, 0.319886893, 0.0322968662, 0.0422549993,
          0.46977827, 0.156618655, 0.00454754382, 0.311338693,
          0.46977827, 0.46977827, 0.0868821442, 0.021389436, 0.451381385,
          0.103312045, 0.328023851, 0.427461863, 0.427461863,
          0.178337902, 0.0144317625, 0.338451803, 0.427461863,
          0.427461863, 0.0258659646, 0.446205378, 0.446205378,
          0.218822896, 0.0198612269, 0.337161303, 0.446205378,
          0.446205378, 0.191105053, 0.36188525, 0.0271573588,
          0.0358575098, 0.15291065, 0.409765959, 0.409765959,
          0.409765959, 0.409765959, 0.409765959, 0.0741383508,
          0.108580388, 0.473218411, 0.473218411, 0.271255612,
          0.0126807587, 0.0922175422, 0.473218411, 0.473218411,
          0.0490627103, 0.0857934654, 0.488561392, 0.488561392,
          0.15914534, 0.00601693243, 0.0722500607, 0.488561392,
          0.488561392, 0.473293871, 0.0348581038, 0.0509514883,
          0.473293871, 0.473293871, 0.0768652037, 0.0206656586,
          0.298492581, 0.473293871, 0.344482124, 0.344482124,
          0.344482124, 0.344482124, 0.344482124, 0.344482124,
          0.217289448, 0.344482124, 0.344482124, 0.34515214, 0.34515214,
          0.22162509, 0.336932778, 0.34515214, 0.34515214, 0.34515214,
          0.34515214, 0.34515214, 0.0918353647, 0.316789091, 0.174369052,
          0.00496729231, 0.0764937848, 0.557984054, 0.557984054,
          0.473244339, 0.0520192087, 0.442492932, 0.117520303,
          0.0388915427, 0.442492932, 0.442492932, 0.442492932,
          0.0165133737, 0.0313660242, 0.442492932, 0.378084719,
          0.0128822317, 0.0217959546, 0.410732657, 0.410732657,
          0.410732657, 0.0938154012, 0.410732657, 0.410732657,
          0.0775421634, 0.0263294429, 0.00806925166, 0.0116156228,
          0.395166039, 0.472308725, 0.472308725, 0.472308725,
          0.403724641, 0.46977827, 0.156618655, 0.00454754382,
          0.311338693, 0.46977827, 0.46977827, 0.0868821442, 0.021389436,
          0.451381385, 0.136008605, 0.0346696377, 0.188680634,
          0.480106086, 0.480106086, 0.0331596211, 0.129602984,
          0.480106086, 0.480106086, 0.0323142931, 0.0479873382,
          0.124072388, 0.205666944, 0.00831288937, 0.00559163839,
          0.557760417, 0.557760417, 0.557760417, 0.46977827, 0.156618655,
          0.00454754382, 0.311338693, 0.46977827, 0.46977827,
          0.0868821442, 0.021389436, 0.451381385, 0.136008605,
          0.0346696377, 0.188680634, 0.480106086, 0.480106086,
          0.0331596211, 0.129602984, 0.480106086, 0.480106086,
          0.0323142931, 0.0479873382, 0.124072388, 0.205666944,
          0.00831288937, 0.00559163839, 0.557760417, 0.557760417,
          0.557760417, 0.36188525, 0.0271573588, 0.0358575098,
          0.15291065, 0.409765959, 0.409765959, 0.409765959, 0.409765959,
          0.409765959, 0.415664047, 0.415664047, 0.415664047,
          0.415664047, 0.154106572, 0.0909399539, 0.415664047,
          0.304842263, 0.0837674737, 0.0786326975, 0.391360164,
          0.496703774, 0.109832637, 0.0153425373, 0.283726901,
          0.496703774, 0.496703774, 0.0524377935, 0.473293871,
          0.0348581038, 0.0509514883, 0.473293871, 0.473293871,
          0.0768652037, 0.0206656586, 0.298492581, 0.473293871,
          0.423028916, 0.423028916, 0.102440365, 0.0310218539,
          0.423028916, 0.423028916, 0.354685217, 0.0365031399,
          0.375991821, 0.465696543, 0.465696543, 0.123505704,
          0.0803452358, 0.225341797, 0.465696543, 0.465696543,
          0.212858111, 0.100293651 ]
      - [ 0.25383842, 0.0612802953, 0.0475138202, 0.183353677,
          0.399845868, 0.487096459, 0.487096459, 0.139297932,
          0.487096459, 0.165079027, 0.163915887, 0.285368383,
          0.0828921795, 0.641946316, 0.641946316, 0.156591877,
          0.00991557632, 0.0485334285, 0.400361389, 0.400361389,
          0.400361389, 0.124574184, 0.400361389, 0.400361389,
          0.105491593, 0.182814837, 0.366722941, 0.065797925,
          0.195511997, 0.0331891477, 0.0309285019, 0.061294917,
          0.686561704, 0.686561704, 0.0438046642, 0.0111348052,
          0.341807663, 0.45611316, 0.45611316, 0.0339726582, 0.277808875,
          0.45611316, 0.342121273, 0.167662084, 0.176081449,
          0.0327957831, 0.633410156, 0.633410156, 0.0232026111,
          0.0144806486, 0.0346449949, 0.394871473, 0.173425004,
          0.047281459, 0.0362527147, 0.477090299, 0.181996047,
          0.00307741505, 0.0195245203, 0.429946601, 0.552869081,
          0.49133262, 0.0105000902, 0.451541156, 0.451541156,
          0.451541156, 0.0351264141, 0.0463400856, 0.14987725,
          0.165915579, 0.35575217, 0.451541156, 0.176177993, 0.560147226,
          0.560147226, 0.0152043365, 0.00300124404, 0.0198562592,
          0.356052995, 0.235256389, 0.391259789, 0.0362527147,
          0.477090299, 0.181996047, 0.00307741505, 0.0195245203,
          0.429946601, 0.552869081, 0.49133262, 0.0105000902,
          0.451541156, 0.451541156, 0.451541156, 0.0351264141,
          0.0463400856, 0.14987725, 0.165915579, 0.35575217, 0.451541156,
          0.176177993, 0.560147226, 0.560147226, 0.0152043365,
          0.00300124404, 0.0198562592, 0.356052995, 0.235256389,
          0.391259789, 0.048875723, 0.126078784, 0.170156509,
          0.00365226436, 0.0477413088, 0.047890842, 0.560529053,
          0.560529053, 0.560529053, 0.17774874, 0.500910044, 0.500910044,
          0.500910044, 0.0864709392, 0.0240359362, 0.0622837804,
          0.217798099, 0.388972849, 0.413638264, 0.413638264,
          0.413638264, 0.413638264, 0.162001714, 0.0254759863,
          0.114245936, 0.316921443, 0.413638264, 0.203857809,
          0.139264032, 0.165312424, 0.00674470142, 0.0694851875,
          0.0462108999, 0.160611719, 0.660424411, 0.660424411,
          0.128505394, 0.0498783886, 0.304899037, 0.530195236,
          0.198180363, 0.00918380171, 0.00770735275, 0.530195236,
          0.530195236, 0.310173422, 0.0627838001, 0.178111017,
          0.56435895, 0.438495278, 0.175008744, 0.0129471067,
          0.0491493978, 0.56435895, 0.400361389, 0.400361389,
          0.400361389, 0.124574184, 0.400361389, 0.400361389,
          0.105491593, 0.182814837, 0.366722941, 0.155898616,
          0.0926989019, 0.0670608133, 0.377813995, 0.42902562,
          0.281646103, 0.42902562, 0.42902562, 0.42902562, 0.171026349,
          0.0956577286, 0.422330379, 0.422330379, 0.422330379,
          0.191430405, 0.406142831, 0.422330379, 0.205745861,
          0.0327957831, 0.633410156, 0.633410156, 0.0232026111,
          0.0144806486, 0.0346449949, 0.394871473, 0.173425004,
          0.047281459, 0.0721135587, 0.146365106, 0.22711657,
          0.0220565517, 0.0162390266, 0.051171843, 0.67408514,
          0.67408514, 0.0539912172, 0.360972404, 0.303650081,
          0.360972404, 0.360972404, 0.360972404, 0.15462707, 0.360972404,
          0.360972404, 0.313805968, 0.176177993, 0.560147226,
          0.560147226, 0.0152043365, 0.00300124404, 0.0198562592,
          0.356052995, 0.235256389, 0.391259789, 0.505807579,
